tree
version=v4
num_class=1
num_tree_per_iteration=1
label_index=0
max_feature_idx=13
objective=binary sigmoid:1
feature_names=Gender Age Driving_License Region_Code Previously_Insured Vehicle_Age Vehicle_Damage Annual_Premium Policy_Sales_Channel Vintage Age_Group Risk_Score Insured_Damage_Score Region_Density
feature_infos=-1:1:0 [20:82] -1:1 -1:28:8:46:41:15:30:29:50:11:36:3:33:47:35:6:45:37:18:39:14:10:21:2:48:13:12:9:7:32:43:27:17:26:25:24:20:31:0:38:23:16:4:34:49:19:22:5:1:40:44:42:52 -1:0:1 -1:1:0:2 -1:1:0 [2630:66710.8515625] -1:152:26:124:160:156:122:157:154:151:163:13:25:7:8:55:30:1:155:52:11:125:29:15:120:12:24:14:61:153:4:31:158:3:60:16:23:150:22:9:10:19:136:18:109:116:145:147:37:91:21:139:138:127:128:59:133:42:131:140:103:44:113:64:35:135:119:54:148:47:56:65:107:159:129:106:94:132:36:86:108:111:121:45:88:92:93:78:98:130:66:89:96:97:20:32:53:73:90:81:118:39:48:100:114 [10:299] -1:1:0:2:3 -1:2:0:1 -1:3:0:1:2 [212:404637]
tree_sizes=3310 3617 3683 3690 3445 3579 3415 3647 3559 3591 3654 3400 3612 3456 3628 3699 3405 3616 3710 3609 3583 3664 3699 3648 3574 3577 3665 3720 3687 3486 3652 3677 3648 3461 3523 3501 3517 3468 3640 3585 3627 3515 3485 3507 3701 3666 3624 3547 3607 3651 3549 3613 3562 3501 3609 3638 3604 3545 3513 3479 3540 3660 3519 3545 3678 3785 3626 3672 3680 3626 3737 3534 3557 3559 3591 3717 3744 3730 3539 3751 3540 3590 3690 3606 3660 3494 3784 3528 3779 3780 3757 3629 3716 3498 3712 3628 3703 3788 3587 3709 3634 3585 3848 3585 3661 3622 3678 3497 3711 3581 3675 3705 3415 3674 3715 3552 3504 3509 3749 3663 3701 3526 3691 3668 3529 3660 3661 3687 3587 3631 3704 3576 3512 3763 3546 3824 3764 3545 3651 3843 3453 3544 3465 3470 3628 3620 3737 3708 3613 3536 3653 3624 3502 3696 3634 3477 3599 3633 3600 3575 3761 3630 3690 3539 3522 3769 3631 3457 3481 3734 3513 3494 3448 3414 3521 3532 3704 3553 3576 3675 3512 3627 3509 3569 3679 3486 3450 3443 3514 3547 3529 3487 3539 3698 3574 3461 3639 3593 3439 3434 3551 3485 3412 3403 3404 3446 3536 3525 3472 3628 3441 3485 3485 3585 3476 3487 3645 3452 3533 3473 3520 3553 3541 3498 3554 3436 3438 3493 3457

Tree=0
num_leaves=31
num_cat=16
split_feature=11 10 1 3 3 1 1 1 3 4 5 5 1 3 1 1 5 1 1 1 3 3 13 5 1 1 5 0 1 5
split_gain=122078 23351.4 3580.64 3281.48 1526.1 761.635 568.245 859.219 546.614 451.366 434.992 350.334 296.761 220.393 202.259 239.323 199.161 198.759 186.092 159.496 123.452 111.052 104.36 96.1541 92.105 90.6354 109.537 84.1736 84.0285 83.9858
threshold=0 1 54.500000000000007 2 3 28.500000000000004 27.500000000000004 38.500000000000007 4 5 6 7 49.500000000000007 8 74.500000000000014 21.500000000000004 9 21.500000000000004 48.500000000000007 60.500000000000007 10 11 28069.000000000004 12 35.500000000000007 67.500000000000014 13 14 28.500000000000004 15
decision_type=1 1 2 9 9 2 2 2 9 1 1 1 2 9 2 2 1 2 2 2 9 9 2 1 2 2 1 1 2 1
left_child=1 2 3 6 14 16 23 22 -7 -2 12 13 20 19 15 -3 -5 -6 -10 -4 -9 27 -8 -1 28 -17 -27 -13 29 -24
right_child=9 4 11 5 17 8 7 10 18 -11 -12 21 -14 -15 -16 25 -18 -19 -20 -21 -22 -23 24 -25 -26 26 -28 -29 -30 -31
leaf_value=-1.8680795755237689 -2.0095412163573236 -1.9751556096420002 -1.9119031093550212 -1.8777941099409288 -2.002544145562311 -1.924600730701167 -1.863534082756829 -1.855318564250481 -1.8883716625524523 -2.0248188122918354 -1.8479270441980802 -1.8810695089014717 -1.8907265602757133 -1.9436475247107474 -1.9824231966082393 -1.9372091714795512 -1.966866754009698 -1.9823659385564483 -1.9118806935374162 -1.9346977082279353 -1.875554158078808 -1.9478613343355571 -1.8153664337594249 -1.924654761558914 -1.8556123070502459 -1.9618062734829094 -1.9261581301691901 -1.9123717250189611 -1.8370177098962948 -1.8880809102257581
leaf_weight=87.877841979265213 5447.9959562420845 657.5241713821888 2050.1244407892227 69.915051758289337 1676.8856260180473 2117.2428904771805 1032.9142185151577 1396.7951725125313 3996.8821665942669 42938.167694926262 1478.6495638787746 681.72553545236588 2866.3019988536835 1633.2156090736389 450.89830303192139 2597.0752687752247 612.8860998749733 4483.060680359602 1066.3658817410469 1226.5251310765743 8176.7266455590725 125.52440831065178 52.920316100120544 516.61845168471336 1469.2917031049728 947.72541698813438 278.90727570652962 313.54211673140526 2275.1433458328247 159.08363315463066
leaf_count=817 50650 6113 19060 650 15590 19684 9603 12986 37159 399196 13747 6338 26648 15184 4192 24145 5698 41679 9914 11403 76019 1167 492 4803 13660 8811 2593 2915 21152 1479
internal_value=-1.96813 -1.90836 -1.8875 -1.87979 -1.97125 -1.90736 -1.86876 -1.86718 -1.90248 -2.0231 -1.87357 -1.92235 -1.87661 -1.92811 -1.95054 -1.94729 -1.95775 -1.98783 -1.89347 -1.92058 -1.87239 -1.89713 -1.84938 -1.91643 -1.84569 -1.9425 -1.9537 -1.8917 -1.83982 -1.86993
internal_weight=0 44498.3 33406.3 27375.6 11092.1 7863.29 19512.3 18907.8 7180.49 48386.2 13918.5 6030.66 12439.8 4909.87 4932.13 4481.23 682.801 6159.95 5063.25 3276.65 9573.52 1120.79 4989.35 604.496 3956.44 3823.71 1226.63 995.268 2487.15 212.004
internal_count=863547 413701 310578 254511 103123 73105 181406 175786 66757 449846 129400 56067 115653 45647 45854 41662 6348 57269 47073 30463 89005 10420 46386 5620 36783 35549 11404 9253 23123 1971
cat_boundaries=0 1 2 4 6 8 9 10 11 13 14 16 18 19 20 21 22
cat_threshold=4 6 1905018968 25163 1890338936 586 2249261571 1514500 1 2 2 948201672 8906 2 537135104 584 1905953177 287466 2 2 2 2
is_linear=0
shrinkage=1


Tree=1
num_leaves=31
num_cat=21
split_feature=12 10 8 10 8 3 3 3 3 5 4 8 8 5 8 3 8 3 8 8 9 8 9 9 9 9 9 9 9 9
split_gain=109793 18956.8 5381.89 2441.21 1647.97 1382.66 712.791 613.807 611.144 465.6 458.979 368.951 368.796 358.141 335.354 253.364 250.169 225.751 217.182 189.083 185.287 179.62 165.534 165.966 203.81 124.795 122.997 132.411 121.903 219.061
threshold=0 1 2 3 4 5 6 7 8 9 10 11 12 13 14 15 16 17 18 19 244.50000000000003 20 244.50000000000003 127.50000000000001 65.500000000000014 244.50000000000003 201.50000000000003 215.50000000000003 127.50000000000001 65.500000000000014
decision_type=1 1 9 1 9 9 9 9 9 1 1 9 9 1 9 9 9 9 9 9 2 9 2 2 2 2 2 2 2 2
left_child=1 2 3 7 6 14 13 9 -4 19 18 21 20 25 -3 -9 -10 -6 -2 -1 26 -7 23 24 -14 28 -11 -28 29 -5
right_child=10 5 8 4 17 11 -8 15 16 12 -12 -13 22 -15 -16 -17 -18 -19 -20 -21 -22 -23 -24 -25 -26 -27 27 -29 -30 -31
leaf_value=0.14615911071057527 -0.044054196810693544 -0.022750380776209854 0.038805621450583909 0.10060065720634431 0.013677311893830386 -0.040135587366260245 0.058888700863037061 0.040732224568050292 -0.010400794556893926 0.10817392837617389 -0.056290864483156337 0.014448641527594959 0.099620986310400395 0.11768450417617025 0.020736000267162762 0.08073759915654706 0.025679903496216502 0.049219115687073829 -0.010098938476320929 0.083275271246480417 0.087416688288446801 -0.018342702000538037 0.070342581224120099 0.099889020281678273 0.068789185405968373 0.067834850600795402 0.15729810050355808 0.11454703249277143 0.097292716167846849 0.062877167001802667
leaf_weight=746.65722668915987 4731.1093421280384 485.04789874702692 2036.7931720167398 661.21649896353483 509.77393711358309 1258.8445099815726 2845.8701460435987 523.24462313205004 1528.7864136099815 2941.7677358984947 41125.58135843277 722.23653465509415 901.66964489966631 1020.1657964512706 4513.2577634602785 3814.113464474678 688.52664057910442 6479.9595973342657 548.26250582933426 272.06110737472773 888.30900156497955 4087.6479769572616 1166.7216672673821 2606.1959017142653 1321.692076921463 869.11255446821451 289.93630274385214 482.60170361399651 1964.9677398353815 920.7173233255744
leaf_count=6401 45390 4489 17753 5822 4604 11974 25383 4709 13717 25331 399196 6804 7759 8802 41365 33475 6143 57142 5260 2344 7649 38491 10042 22425 11374 7648 2496 4155 17298 8106
internal_value=0 0.0541726 0.0719942 0.0791944 0.0647385 -0.00297699 0.0799296 0.0929822 0.0190803 0.0992454 -0.0544975 -0.019002 0.0962276 0.0908163 0.016479 0.0760163 0.000868084 0.0466502 -0.0406305 0.131617 0.107697 -0.0235392 0.0870995 0.091328 0.0812928 0.084815 0.112837 0.130592 0.0889757 0.0786448
internal_weight=0 46547.9 35480.9 31226.8 15271.8 11067 8282.05 15955 4254.11 11617.6 46405 6068.73 10598.9 5436.18 4998.31 4337.36 2217.31 6989.73 5279.37 1018.72 4602.61 5346.49 5996.28 4829.56 2223.36 4416.01 3714.31 772.538 3546.9 1581.93
internal_count=863547 413701 310578 272965 134805 103123 73059 138160 37613 99976 449846 57269 91231 47676 45854 38184 19860 61746 50650 8745 39631 50465 51600 41558 19133 38874 31982 6651 31226 13928
cat_boundaries=0 1 2 8 9 15 17 19 21 23 24 25 31 37 38 44 46 52 54 60 66 72
cat_threshold=8 6 2810188952 142607376 134217728 369098752 2085093632 8 2 2248146952 0 0 0 671088640 8 1890338936 586 813697152 584 1879357464 25177 1898195032 8776 1 1 1682237696 0 0 2231369728 2172649505 1 2214592512 0 0 0 738197504 8 2 2172656642 546313216 0 8192 2440 1 2148532227 1249280 4202498 269484032 16387 2155872388 59768848 1 2253394467 1121280 3884038530 814743552 0 889192448 25165824 1 67108864 0 0 335544320 0 8 0 0 0 0 0 1
is_linear=0
shrinkage=0.05


Tree=2
num_leaves=31
num_cat=23
split_feature=11 10 8 1 3 1 8 8 3 8 4 1 8 5 3 3 8 1 8 8 5 3 1 1 8 8 3 1 3 5
split_gain=99286.7 15597.2 4282.37 2780.94 1255.84 961.834 1064.81 700.969 514.294 513.593 467.157 436.675 405.52 334.97 327.265 239.255 232.202 221.036 213.723 206.046 202.545 201.738 163.58 160.487 157.757 139.663 136.036 118.801 113.801 108.78
threshold=0 1 2 50.500000000000007 3 36.500000000000007 4 5 6 7 8 57.500000000000007 9 10 11 12 13 70.500000000000014 14 15 16 17 40.500000000000007 51.500000000000007 18 19 20 68.500000000000014 21 22
decision_type=1 1 9 2 9 2 9 9 9 9 1 2 9 1 9 9 9 2 9 9 1 9 2 2 9 9 9 2 9 1
left_child=1 2 3 5 16 9 13 11 23 26 18 20 27 15 -8 -7 -3 -18 -2 -14 -5 -16 -23 25 -10 -4 -1 -6 -9 -13
right_child=10 4 8 7 12 6 14 28 24 -11 -12 29 19 -15 21 -17 17 -19 -20 -21 -22 22 -24 -25 -26 -27 -28 -29 -30 -31
leaf_value=0.11055221647588689 -0.043328076668777846 -0.018367496526196566 -0.0050945248008079447 0.066022737510823465 0.031013179366253175 0.089537168176521686 0.030921963985105622 0.0040056584580202698 -0.012125730894515767 0.061605700063573535 -0.055915779393928368 0.037591982993575801 -0.038898212221135986 0.11971717353693406 0.081968137894533125 0.058177288391621396 0.027195606568033766 -0.00058961581258112146 -0.0093197409993169191 -0.016215331501320464 0.098454225021718592 0.074524861699293718 0.058282033795955236 0.0058946884221683926 0.022441374142381121 0.04206035217484589 0.080219459652314362 -0.011203946210708408 0.035061124174349187 0.064052451921570039
leaf_weight=3760.2417616099119 4579.9993541389704 408.31675902754068 177.04539336264133 2714.4524029791355 518.13740582764149 5830.6470005512238 749.83661961555481 335.6670114248991 1310.8544953539968 897.66108977794647 39375.632557868958 1788.670661136508 1311.9426356703043 812.89825109392405 1987.1110905185342 860.01491659134626 3198.784776955843 922.10656765848398 537.73583900928497 4437.660854972899 585.21440905332565 2135.2192742526531 5656.0415515974164 476.90046340227127 430.38985428214073 1852.2455061599612 722.30486406385899 245.64503007382154 3809.2306359112263 496.15671921521425
leaf_count=29875 45451 3833 1503 22808 4814 47245 6497 2992 11892 7326 399196 15310 12835 6470 16179 7235 28763 8431 5199 42167 4722 17361 46700 4150 3779 15715 6036 2280 32710 4073
internal_value=0 0.0493907 0.0648021 0.070871 -0.00284629 0.0802293 0.0746935 0.0484247 0.0173935 0.0987826 -0.0540687 0.0600326 -0.0168968 0.0892903 0.0641445 0.085727 0.0173523 0.0209275 -0.0398576 -0.0214497 0.0717746 0.0666579 0.062653 0.0318676 -0.00350229 0.0381285 0.105854 0.0172101 0.0325618 0.0433379
internal_weight=0 48431.4 37388.8 33141.4 11042.6 23412 18031.8 9729.39 4247.44 5380.21 44493.4 5584.49 6513.39 7503.56 10528.2 6690.66 4529.21 4120.89 5117.74 5749.6 3299.67 9778.37 7791.26 2506.19 1741.24 2029.29 4482.55 763.782 4144.9 2284.83
internal_count=863547 413701 310578 273539 103123 190924 147687 82615 37039 43237 449846 46913 62096 60950 86737 54480 41027 37194 50650 55002 27530 80240 64061 21368 15671 17218 35911 7094 35702 19383
cat_boundaries=0 1 2 8 10 16 22 24 30 31 37 38 40 42 48 54 60 61 63 69 75 77 79 80
cat_threshold=4 6 2810188952 142611472 134217728 385875968 2085093632 8 816597080 584 2214596616 0 0 0 134217728 8 2248146952 0 0 0 1811939328 8 1911318648 90696 2214592512 0 0 335544320 1811939328 8 1 2197815834 8388608 0 268435456 2119303168 8 2 2215641635 1514496 1890355672 25176 2172656640 814748672 0 536879104 2440 1 3884054914 814743552 0 889192448 25165824 1 0 0 0 0 0 1 2 1610909704 601 4204546 269484032 16387 2147483652 59768848 1 2097154 0 1073741824 0 128 1 1896151448 320201 2218791591 1121284 2
is_linear=0
shrinkage=0.05


Tree=3
num_leaves=31
num_cat=19
split_feature=11 10 8 1 3 1 8 8 3 12 7 1 8 3 8 3 8 8 1 1 8 3 3 1 8 9 9 8 1 7
split_gain=90156.8 12980.9 3454.08 2156.77 1146.24 738.382 811.15 561.001 464.933 457.483 372.758 352.421 338.161 273.232 272.442 264.402 218.124 217.313 196.222 191.538 175.426 171.869 142.361 131.148 130.714 121.682 119.266 111.659 156.739 101.201
threshold=0 1 2 50.500000000000007 3 35.500000000000007 4 5 6 7 2978.5000000000005 57.500000000000007 8 9 10 11 12 13 74.500000000000014 40.500000000000007 14 15 16 51.500000000000007 17 244.50000000000003 244.50000000000003 18 65.500000000000014 20799.000000000004
decision_type=1 1 9 2 9 2 9 9 9 1 2 2 9 9 9 9 9 9 2 2 9 9 9 2 9 2 2 9 2 2
left_child=1 2 3 5 14 10 15 11 23 16 20 21 24 -8 -3 26 -2 -10 27 29 -1 -5 -21 -4 -6 -12 -7 28 -16 -15
right_child=9 4 8 7 12 6 13 -9 17 -11 25 -13 -14 19 18 -17 -18 -19 -20 22 -22 -23 -24 -25 -26 -27 -28 -29 -30 -31
leaf_value=0.083363020251543352 -0.0075141229794517027 -0.02205891668735083 0.039761792885769386 0.074417337223642549 -0.039011497879686226 0.089682743556287928 0.029412680239520761 0.030840625685777574 -0.0091341947922166499 -0.055547221741188958 0.10430142967684364 0.039905188823035759 0.0049551407219944688 0.054546313965384743 0.046061743355941459 0.06446103037194939 -0.042610625892697401 0.0240309225966924 -0.014306536803011416 0.073982394046667982 0.04734511753308842 0.048875217973892181 0.053116005090955147 0.0074809466853972524 -0.019289755883019882 0.079144368112891453 0.071551019793113624 0.012421999782501423 0.018775275971459594 0.075294019644825405
leaf_weight=1115.5548311546445 512.13622795790434 465.26741363853216 1727.8845036253333 2123.13803268224 1164.4925926849246 4709.7532133162022 798.3778960108757 4393.0046287700534 1578.9574403837323 37687.738341808319 2567.6594241857529 2282.3438857272267 1249.8122209608555 750.52963905036449 832.05857892334461 2373.7785126790404 4450.1608196347952 706.77188687026501 433.15452854335308 1131.2826876416802 646.54312440007925 1241.5980644598603 6184.364675141871 384.68801290541887 3359.1258429065347 591.37796717137098 1123.2338769435883 2082.4743328094482 1432.1100265458226 2709.6809579357505
leaf_count=8424 4987 4464 14158 16573 11771 35377 6744 36927 14288 399196 19009 18749 11746 5762 7355 18641 45663 6081 4014 8716 5057 10076 48945 3307 32484 4411 8571 18539 12750 20762
internal_value=0 0.0452395 0.0587274 0.0640223 -0.00272381 0.071983 0.0676713 0.0445 0.0168529 -0.0536454 0.0893145 0.0549739 -0.0180802 0.0588897 0.0141818 0.079887 -0.0390109 0.00118082 0.0177482 0.0610444 0.0708892 0.0653586 0.0565165 0.033724 -0.0244415 0.099592 0.0860437 0.0209833 0.0286761 0.0707938
internal_weight=0 50159 39140.5 34742.2 11018.5 24702.1 19781 10040.1 4398.3 42650 4921.14 5647.08 5773.43 11574.2 5245.06 8206.77 4962.3 2285.73 4779.8 10775.9 1762.1 3364.74 7315.65 2112.57 4523.62 3159.04 5832.99 4346.64 2264.17 3460.21
internal_count=863547 413701 310578 272744 103123 190419 153518 82325 37834 449846 36901 45398 56001 90929 47122 62589 50650 20369 42658 84185 13481 26649 57661 17465 44255 23420 43948 38644 20105 26524
cat_boundaries=0 1 2 8 10 16 22 24 25 31 33 39 41 47 53 59 61 63 69 75
cat_threshold=4 6 2810187928 142611472 134217728 369098752 2085093632 8 1890339960 1049162 2214596616 0 0 0 134217728 8 2248146952 0 0 0 1744830464 8 1898195032 584 2 1617225984 0 0 2231369728 2172649505 1 2215641635 1514496 2709527554 537924608 0 8192 2440 1 805570568 584 787992 1056 134217728 9445504 2118786313 8 4202498 806354944 16387 2155872388 26214417 1 67108864 0 0 335544320 738197504 8 805308416 520 553945088 585 0 0 0 0 0 1 100663304 0 0 268435456 2113929216 8
is_linear=0
shrinkage=0.05


Tree=4
num_leaves=31
num_cat=9
split_feature=11 1 1 3 3 9 4 1 9 9 9 9 5 3 5 9 1 1 9 9 9 3 9 9 5 9 9 1 1 1
split_gain=82169.2 8454.1 4137.81 1294.98 1054.81 519.417 485.241 438.816 414.743 681.295 318.443 312.046 300.667 260.081 212.278 210.839 202.586 191.798 190.154 249.82 164.774 162.495 150.06 142.575 141.485 132.211 214.287 131.955 126.473 121.383
threshold=0 26.500000000000004 57.500000000000007 1 2 244.50000000000003 3 68.500000000000014 127.50000000000001 65.500000000000014 128.50000000000003 80.500000000000014 4 5 6 33.500000000000007 21.500000000000004 49.500000000000007 125.50000000000001 117.50000000000001 245.50000000000003 7 84.500000000000014 103.50000000000001 8 63.500000000000007 60.500000000000007 27.500000000000004 22.500000000000004 48.500000000000007
decision_type=1 2 2 9 9 2 1 2 2 2 2 2 1 9 1 2 2 2 2 2 2 9 2 2 1 2 2 2 2 2
left_child=1 4 3 5 28 8 -2 14 9 15 -10 -11 16 -5 -4 -3 -6 -12 19 22 -7 -18 -13 -24 -9 26 -17 -15 -1 -29
right_child=6 2 7 13 12 20 -8 24 10 11 17 18 -14 27 -16 25 21 -19 -20 -21 -22 -23 23 -25 -26 -27 -28 29 -30 -31
leaf_value=0.0083630644753297095 -0.038325481013739719 0.060688629097166207 0.019781899138812207 0.028509266763145164 -0.032154596140993752 -0.0050335537692548877 -0.055227899575388512 -0.0089854480676962185 0.14992864023006411 0.025867106487331194 0.075827401468305966 0.076859760813022523 0.041450626282230972 0.0015809022228491583 0.043619626882285392 0.085967738347106928 -0.020353564815736334 0.060436999020251105 0.010873194563413619 0.08593019716615842 0.050583928801507395 -0.00027044507434452594 0.03735873247110795 0.058991604140164002 0.022862195815053245 0.1183836904690039 0.034855546957552608 0.05239142492062196 0.032518052173205719 0.036366600343844702
leaf_weight=838.32549428194761 4812.9118757471442 1517.6156353577971 4556.8969510123134 2837.6083386912942 1700.5498159229755 136.85786921530962 36061.523955762386 1630.2199023738503 133.73676065355539 1234.6432560533285 8902.5450631901622 506.59991097450256 223.52650293707848 154.61243601888418 1174.6801334694028 1894.2983936592937 2308.5782465860248 2620.1295621842146 238.5820704549551 624.74118247628212 4941.5598647668958 1791.7564152702689 1627.8837145119905 1431.339536242187 443.63888122141361 257.31378795206547 229.95570483058691 4673.6848187819123 1532.6000675857067 1581.6029865816236
leaf_count=7424 50650 11181 38243 23340 17228 1026 399196 15032 979 9192 64604 3756 1962 1373 9488 13928 22527 20170 1781 4630 36982 16877 12121 10640 4013 1886 1694 35855 13044 12725
internal_value=0 0.0416071 0.0505009 0.0577396 -0.00431736 0.0634248 -0.0532377 0.0175362 0.0668866 0.0591691 0.0732181 0.0480958 -0.0154272 0.0414589 0.0246674 0.0752536 -0.0176454 0.0723278 0.0542922 0.0567642 0.0490851 -0.011628 0.0516542 0.0474803 -0.00217262 0.0845349 0.0804347 0.0471383 0.0238765 0.0483397
internal_weight=0 51746.1 43350.7 35545.3 8395.34 26297.8 40874.4 7805.44 21219.4 9562.97 11656.4 5663.79 6024.41 9247.51 5731.58 3899.18 5800.88 11522.7 4429.15 4190.56 5078.42 4100.33 3565.82 3059.22 2073.86 2381.57 2124.25 6409.9 2370.93 6255.29
internal_count=863547 413701 334639 267863 79062 194570 449846 66776 156562 70809 85753 42120 58594 73293 47731 28689 56632 84774 32928 31147 38008 39404 26517 22761 19045 17508 15622 49953 20468 48580
cat_boundaries=0 1 3 5 6 7 9 10 12 13
cat_threshold=4 1905027160 25419 816597072 576 1 1 2383479299 465924 2 239305478 302100 2
is_linear=0
shrinkage=0.05


Tree=5
num_leaves=31
num_cat=21
split_feature=11 8 1 3 3 1 8 1 12 8 8 8 10 5 5 8 1 8 1 1 1 8 1 3 1 10 8 3 3 5
split_gain=75254.8 9528.11 3668.16 868.117 686.396 564.572 503.942 553.037 470.04 311.139 285.988 248.488 220.364 214.628 207.442 197.71 192.087 176.751 162.584 157.974 140.879 138.032 131.149 126.987 136.973 119.738 108.494 102.399 97.8384 95.6561
threshold=0 1 54.500000000000007 2 3 62.500000000000007 4 38.500000000000007 5 6 7 8 9 10 11 12 70.500000000000014 13 23.500000000000004 22.500000000000004 36.500000000000007 14 38.500000000000007 15 47.500000000000007 16 17 18 19 20
decision_type=1 9 2 9 9 2 9 2 1 9 9 9 1 1 1 9 2 9 2 2 2 9 2 9 2 1 9 9 9 1
left_child=1 3 4 11 6 10 13 9 15 19 28 25 22 -3 16 -2 -7 -5 -15 -8 -20 -16 26 -9 -25 -1 -6 -19 -4 -30
right_child=8 2 5 17 12 14 7 23 -10 -11 -12 -13 -14 18 21 -17 -18 27 20 -21 -22 -23 -24 24 -26 -27 -28 -29 29 -31
leaf_value=0.031861522122100597 -0.041307300938159902 0.089082612649842324 0.013830798781971063 -0.035136173964925799 0.065344646628075972 0.010876358482521501 0.032734490115939492 0.058211502420538998 -0.054895900917847656 0.041814285853001038 0.01961958008555666 -0.018231413855147195 0.031911456283375092 0.022509614141810786 0.047973181684376386 -0.0080575104781979365 -0.014250006376278226 -0.0049626521208650841 0.082705304658442461 0.074951141947354347 0.064716304657304199 0.010471078065071075 0.042080571920230139 0.048207824382933938 0.033825401114893204 0.010405682987856777 0.035807631814694416 -0.020502817938958483 0.041306319434525854 0.064279063187890423
leaf_weight=1050.3142211660743 4138.2113835588098 1147.2277615442872 293.34652230143547 1360.7941573038697 1642.0871024504304 2546.9829488694668 233.73312784731388 2180.3488239049911 34482.973233833909 1136.4808164462447 2443.5182656124234 544.179807305336 3058.739329405129 208.41335018724203 483.21783561259508 523.44121337682009 1084.5245547741652 1757.8284762725234 1259.9315626174212 4266.8715656101704 7992.1265502870083 526.96606145054102 2511.225444227457 5294.7185559123755 2408.44819342345 1774.1767187565565 500.07891472429037 2748.527438223362 2179.4596974626184 572.07548001408577
leaf_count=8088 45273 7611 2336 14050 11827 21849 2013 15592 399055 8423 19829 5005 24227 1825 4027 5295 10142 16656 8514 29176 55606 4486 18833 38288 18292 15411 3781 26680 16824 4127
internal_value=0 0.0384759 0.048167 -0.00770617 0.0560793 0.0217828 0.0599858 0.0540619 -0.0528597 0.0665942 0.032638 0.0125035 0.0427112 0.0685943 0.00894744 -0.037599 0.00337254 -0.0193113 0.0661822 0.0725974 0.067166 0.0289886 0.0497264 0.0469688 0.0436544 0.0184685 0.0589216 -0.0144654 0.04288 0.0459157
internal_weight=0 53206.3 43970.5 9235.82 33840.4 10130.1 26128.3 15520.6 39144.6 5637.09 5488.4 3368.67 7712.13 10607.7 4641.69 4661.65 3631.51 5867.15 9460.47 4500.6 9252.06 1010.18 4653.39 9883.52 7703.17 2824.49 2142.17 4506.36 3044.88 2751.54
internal_count=863141 413518 327628 85890 244008 83620 185340 111784 449623 39612 43116 28504 58668 73556 40504 50568 31991 57386 65945 31189 64120 8513 34441 72172 56580 23499 15608 43336 23287 20951
cat_boundaries=0 1 7 9 11 17 18 23 29 34 35 36 37 43 49 50 52 53 59 61 63 64
cat_threshold=4 6553602 2129920 1660961283 2156003460 2173700275 1 1890338936 8776 1907152924 25433 2248146952 0 0 0 134217728 8 2 16384 8388608 0 335544320 1681916160 100663320 0 0 0 1811939328 8 0 2129920 0 0 25165826 2 4 2 3884054914 814743552 0 872415232 25165824 1 2 0 0 0 0 1 100663296 1627654152 8713 2 67108864 0 0 268435456 738197504 8 151074304 147619 2361493026 466212 2
is_linear=0
shrinkage=0.05


Tree=6
num_leaves=31
num_cat=6
split_feature=11 10 1 1 4 1 9 9 9 9 9 9 9 9 9 9 9 9 9 9 9 9 5 5 7 1 1 0 9 9
split_gain=68981.2 7953.76 1195.28 542.466 497.963 444.081 420.286 428.804 559.236 314.106 685.667 205.506 202.15 184.597 173.85 606.752 156.786 185.752 156.716 154.441 154.045 317.972 153.881 149.729 142.421 171.944 126.222 123.016 115.193 132.393
threshold=0 1 54.500000000000007 27.500000000000004 2 21.500000000000004 244.50000000000003 197.50000000000003 213.50000000000003 65.500000000000014 104.50000000000001 189.50000000000003 33.500000000000007 245.50000000000003 222.50000000000003 223.50000000000003 207.50000000000003 204.50000000000003 215.50000000000003 239.50000000000003 80.500000000000014 84.500000000000014 3 4 2978.5000000000005 36.500000000000007 74.500000000000014 5 34.500000000000007 63.500000000000007
decision_type=1 1 2 2 1 2 2 2 2 2 2 2 2 2 2 2 2 2 2 2 2 2 1 1 2 2 2 1 2 2
left_child=1 2 3 -1 -2 -3 7 9 16 12 20 24 -5 -8 18 -16 17 -9 -10 -17 -11 -22 -4 -7 -12 -26 27 -25 -14 -30
right_child=4 5 22 6 -6 23 13 8 14 10 11 -13 28 -15 15 19 -18 -19 -20 -21 21 -23 -24 26 25 -27 -28 -29 29 -31
leaf_value=0.016617407055243331 -0.036922694977652007 -0.022961866967874511 0.022993170270715218 0.047844019379439905 -0.054612808070664813 0.024228225312081568 -0.011104398818659827 0.085024438671276861 0.064252664248138219 0.017573761549126255 0.043394561621333053 0.03291345499589185 0.10215121916711395 0.040185594418137058 0.15947971468857783 0.046734999700461903 0.10012216647259593 0.039566321619246871 0.026055256364563802 0.072154719139555915 0.066302772271347662 0.027493554820699002 0.041469374226279214 0.0084630787250656522 0.071428335083816935 0.05387075485518919 -0.024708313048752623 -0.0042282797880761388 0.061487482282108354 0.09420867664177221
leaf_weight=1258.5668045505881 4523.8294663727283 2131.9746812731028 5805.7396657988429 2039.2003233879805 32976.745530702174 725.31309850513935 180.23792018741369 829.93692108988762 390.86542722582817 1671.9409597143531 2308.7929907217622 1231.4829709976912 229.12256798893213 6574.540762193501 146.51566959917545 1832.338426835835 963.71976667642593 308.16879902780056 857.9076276794076 886.68488817662001 689.08805337548256 2254.7470984235406 1398.3735646605492 3784.1798755228519 1739.2606684342027 7033.3576868101954 467.35009804368019 3853.8594083786011 2615.6020311042666 350.56705126166344
leaf_count=10128 50568 21682 45630 14172 399055 6230 1312 5685 2676 11922 16505 8537 1556 46511 1003 12673 6557 2125 5938 6104 4776 15981 10284 34746 11598 48580 4488 35795 17959 2365
internal_value=0 0.0356093 0.045177 0.0488708 -0.0524788 -0.00247869 0.0500262 0.0526942 0.0642994 0.0494392 0.0461293 0.0522904 0.0601437 0.038817 0.0535803 0.0603653 0.0852819 0.0727156 0.038011 0.0550245 0.0296942 0.036578 0.0265795 0.0024637 0.0544438 0.0573517 0.000516099 0.00205951 0.0679933 0.0653548
internal_weight=0 54559.4 43596.8 36392.6 37500.6 10962.7 35134.1 28379.3 6216.14 22163.2 16928.7 12312.9 5234.49 6754.78 4114.31 2865.54 2101.83 1138.11 1248.77 2719.02 4615.78 2943.84 7204.11 8830.7 11081.4 8772.62 8105.39 7638.04 3195.29 2966.17
internal_count=863141 413518 310577 254663 449623 102941 244535 196712 42761 153951 117899 85220 36052 47823 28394 19780 14367 7810 8614 18777 32679 20757 55914 81259 76683 60178 75029 70541 21880 20324
cat_boundaries=0 1 2 3 4 5 6
cat_threshold=4 6 1 2 4 2
is_linear=0
shrinkage=0.05


Tree=7
num_leaves=31
num_cat=16
split_feature=12 8 1 3 3 4 8 1 1 8 1 1 8 5 8 8 8 3 9 1 1 1 7 5 8 8 1 1 1 1
split_gain=63354.6 7410.78 2400.98 982.762 537.106 508.893 329.936 509.467 293.933 248.42 230.694 216.431 208.817 186.977 163.282 155.024 131.49 128.402 125.842 120.982 117.92 140.316 103.272 101.104 156.024 97.952 95.3255 94.5438 96.7051 87.967
threshold=0 1 57.500000000000007 2 3 4 5 38.500000000000007 70.500000000000014 6 22.500000000000004 21.500000000000004 7 8 9 10 11 12 244.50000000000003 47.500000000000007 41.500000000000007 24.500000000000004 2978.5000000000005 13 14 15 50.500000000000007 50.500000000000007 23.500000000000004 23.500000000000004
decision_type=1 9 2 9 9 1 9 2 2 9 2 2 9 1 9 9 9 9 2 2 2 2 2 1 9 9 2 2 2 2
left_child=1 2 4 9 17 12 13 11 15 -3 -5 -8 -2 -6 -13 23 -12 -1 27 -9 21 -19 -16 -4 -25 -22 -18 28 -15 -11
right_child=5 3 8 10 6 -7 7 19 -10 29 16 14 -14 18 22 -17 26 20 -20 -21 25 -23 -24 24 -26 -27 -28 -29 -30 -31
leaf_value=0.016054157526600301 -0.000135278512850824 -0.018163160567260868 0.02301606413708647 -0.029163941318050991 0.073315029810073637 -0.054329327928615237 0.0085283725090668124 0.043133628128953855 -0.0057567562414546445 0.0045741451268015579 -0.012966201797527194 0.066581461791334617 -0.039462193539131968 0.023820219685445225 0.038610046587518987 0.011295667901787664 0.027423891035891414 0.0089833516000810219 0.043561603795492336 0.032126292466060288 0.021619510779919984 0.048806563465120911 0.058672295654640542 -0.022628723570716172 0.050108645838549654 0.038771983842689484 -0.010366784137763773 0.047375013634710438 0.060610559624925835 0.021633490717577336
leaf_weight=844.2108309417963 378.60767614841461 534.25174817442894 2717.7579949498177 2177.8288903012872 1489.0650386065245 31527.986644916236 220.44929500669241 6943.0230184942484 1264.8823068737984 973.63233775645494 3587.7876506671309 3380.2047297507524 4012.848941706121 183.27353534847498 1274.393372759223 2594.3275652900338 385.94312226772308 242.46583372354507 2144.0974326431751 3897.6458633989096 1558.9822902977467 2521.3755860179663 1291.5366890877485 80.525820434093475 725.35761818289757 2100.6820824146271 293.97813502699137 1993.9742662012577 7029.3373196199536 3375.653299421072
leaf_count=6397 3957 4993 21716 23052 9168 399055 1908 46588 11754 8512 33986 21625 46611 1585 8574 21136 2939 2206 14455 28100 11470 17323 8328 602 5284 15087 2500 13603 44582 26045
internal_value=0 0.0330231 0.042216 -0.00308948 0.0474055 -0.0520937 0.0503981 0.0456761 0.0161844 0.0138132 -0.0158976 0.057177 -0.0361618 0.0566123 0.0589806 0.0207208 -0.00916491 0.0349983 0.054471 0.0391761 0.0374592 0.045313 0.0485191 0.0275499 0.0431815 0.0316302 0.0109236 0.0570116 0.0596757 0.0177737
internal_weight=0 55826.6 44497.6 11329.1 37114.7 35919.4 29847 17007.3 7382.85 4883.54 6445.54 6166.58 4391.46 12839.7 5946.13 6117.97 4267.71 7267.72 11350.7 10840.7 6423.51 2763.84 2565.93 3523.64 805.883 3659.66 679.921 9206.59 7212.61 4349.29
internal_count=863141 413518 311491 102027 250999 449623 198516 115123 60492 39550 62477 40435 50568 83393 38527 48738 39425 52483 74225 74688 46086 19529 16902 27602 5886 26557 5439 59770 46167 34557
cat_boundaries=0 1 7 9 11 12 18 24 30 31 36 42 48 50 51 56 61
cat_threshold=8 3883929752 150995984 138412032 369099776 2118779136 8 1890338936 74312 2387806115 1547428 1 2248146952 0 0 0 134217984 8 2 0 33554432 8388736 2048 1 16 32 134217729 2147483776 2018509833 8 4 0 0 0 268435456 1073741824 100663320 0 134217728 0 1811939328 8 4202498 806359040 16903 2156003332 25167920 1 2147483651 69632 2 0 0 0 0 738197504 553648136 0 0 335544320 4194304
is_linear=0
shrinkage=0.05


Tree=8
num_leaves=31
num_cat=24
split_feature=11 8 10 10 3 8 4 3 8 5 8 8 3 3 3 8 5 5 0 5 8 3 9 9 9 9 8 0 9 9
split_gain=58347.5 6423.95 1623.22 874.212 718.642 625.327 519.877 367.712 236.841 260.566 212.159 201.743 160.774 152.483 134.028 132.65 130.697 122.629 116.527 99.6634 94.3383 92.1698 92.0867 114.232 243.329 83.255 81.2412 81.0996 77.3001 74.8327
threshold=0 1 2 3 4 5 6 7 8 9 10 11 12 13 14 15 16 17 18 19 20 21 244.50000000000003 117.50000000000001 65.500000000000014 245.50000000000003 22 23 33.500000000000007 244.50000000000003
decision_type=1 9 1 1 9 9 1 9 9 1 9 9 9 9 9 9 1 1 1 1 9 9 2 2 2 2 9 1 2 2
left_child=1 4 16 8 10 7 11 17 9 -4 -1 -2 -7 -11 -10 -6 20 -5 -12 -9 -3 -14 23 24 28 -24 -18 -17 -15 -19
right_child=6 2 3 5 15 12 -8 19 14 13 18 -13 21 22 -16 27 26 29 -20 -21 -22 -23 25 -25 -26 -27 -28 -29 -30 -31
leaf_value=-0.018189029201577018 -0.00034538799612492116 0.028819451253541791 0.068939395055825664 0.060631176778149325 -0.035203924395048415 0.0349413769701876 -0.054060325398511425 -0.0011448320479457953 0.011550388377815442 0.034147956713552259 0.021431586765407198 -0.03878334490941826 0.0055502575117188993 0.046452859693831283 0.039558388288341573 -0.0075814955970031715 0.038499108721855801 0.047208787292622172 0.0037521308076608273 0.030368748087011656 -0.0047267607152023218 0.022604106381426806 -0.011081698759680386 0.055827422885308911 0.036076809964069922 0.043204607633676284 0.0049166116449015579 -0.02218960328272598 0.06506922205713625 0.033630249483521106
leaf_weight=668.09991688281298 384.59713507443666 220.89687076956034 1651.1817574799061 1460.0976124629378 1135.4117836654186 2688.514996483922 30135.807592235506 271.22918882220984 526.26505237817764 1940.3938605636358 1799.0023032426834 3880.1200903877616 928.13258109241724 906.24327191710472 3201.7534234076738 1725.0270590633154 368.59967395663261 5296.2051324918866 1933.9724220708013 3345.371233150363 2265.2414140477777 6578.7186648324132 72.456517487764359 7229.9349495619535 2786.0617380440235 2796.8467500209808 366.26942241191864 2114.9860813319683 1449.461467474699 1255.1362391412258
leaf_count=6519 4022 1960 9905 8955 12397 19510 399055 2441 3759 13174 14758 46546 7371 5664 21086 16757 3009 35192 16159 23745 20567 48262 498 44508 17831 18040 3123 20867 8841 8620
internal_value=0 0.0307155 0.0381617 0.0406529 -0.00712235 0.0334569 -0.051748 0.0414202 0.0475958 0.0499412 0.00758954 -0.0354087 0.024343 0.0481445 0.0356461 -0.0201251 0.00381476 0.0474685 0.0122395 0.0279281 -0.00164922 0.0205058 0.0498713 0.0517757 0.0460785 0.0418338 0.0223519 -0.0155867 0.0579075 0.0446073
internal_weight=0 56981.5 47605 44384 9376.5 21823.4 34400.5 11628 22560.6 18832.6 4401.07 4264.72 10195.4 17181.4 3728.02 4975.42 3221.01 8011.44 3732.97 3616.6 2486.14 7506.85 15241 12371.7 5141.77 2869.3 734.869 3840.01 2355.7 6551.34
internal_count=863141 413518 326061 297402 87457 154096 449623 78953 143306 118461 37436 50568 75143 108556 24845 50021 28659 52767 30917 26186 22527 55633 95382 76844 32336 18538 6132 37624 14505 43812
cat_boundaries=0 1 7 8 9 11 17 18 20 26 27 33 39 41 43 45 51 52 53 54 55 61 63 64 65
cat_threshold=4 6586370 539000832 1660944899 2156003460 2173704371 1 8 2 1890344056 74345 2248146968 0 134217728 0 675282944 8 1 816580617 584 2214596744 0 0 268435456 1816133888 8 1 2 0 33554432 8388736 2048 1 16 32 134217729 2147483776 2052064265 8 1636091992 8955 2396128931 1284134 3365601955 335104 0 0 0 0 0 1 2 4 2 1 33554456 268435488 0 537919488 2080899072 8 2249196195 1383424 100663304 2
is_linear=0
shrinkage=0.05


Tree=9
num_leaves=31
num_cat=27
split_feature=11 8 10 10 3 8 12 3 8 3 8 5 0 3 8 5 8 8 5 8 5 3 3 8 3 8 9 9 9 10
split_gain=53824 5600.53 1380.9 728.113 628.535 519.321 514.779 307.151 253.664 202.262 200.937 156.331 140.116 136.453 134.362 115.906 91.573 89.0537 88.8715 174.765 87.6151 85.1202 84.9437 84.1678 72.6252 69.1855 67.7493 81.0888 98.7561 66.5345
threshold=0 1 2 3 4 5 6 7 8 9 10 11 12 13 14 15 16 17 18 19 20 21 22 23 24 25 244.50000000000003 197.50000000000003 213.50000000000003 26
decision_type=1 9 1 1 9 9 1 9 9 9 9 1 1 9 9 1 9 9 1 9 1 9 9 9 9 9 2 2 2 1
left_child=1 4 15 9 17 7 10 18 -6 -4 -2 16 22 -7 -13 23 -11 -1 19 -5 -9 -15 -10 -3 -22 -17 27 -16 -29 -14
right_child=6 2 3 5 8 13 -8 20 12 11 -12 14 29 21 26 25 -18 -19 -20 -21 24 -23 -24 -25 -26 -27 -28 28 -30 -31
leaf_value=-0.036314237786691968 -0.0035911937190739006 0.026920288511020893 0.030620164466144847 -0.018344717187689971 -0.019991010632366205 0.032306935791858553 -0.05378607149736539 -0.001088541196975331 0.033191705704571355 0.066634781425637654 -0.038582173019264282 0.049406811352542178 0.012128062563240734 0.021335711673353783 0.039769738571656582 0.035640426984756654 0.03874160665725726 -0.017892557112101564 0.041438131112893628 0.058728949561915357 0.016001320864311202 0.0050271068692210293 0.011427221410477166 -0.0044223736243763686 0.032908519716913748 0.0048453232897912885 0.032058794550772284 0.06780678709278147 0.043313137786119948 -0.0053782754859041243
leaf_weight=878.06659420579672 476.71596191078424 226.70146926492453 2708.7994639277458 78.783666409552097 904.92673428356647 2868.1865457072854 28798.793133534491 270.99840436130762 640.1847984790802 1358.5454955399036 3666.5059102550149 8036.0147671252489 806.78615290671587 6567.6251702010632 6729.5955558568239 378.78412701934576 523.93968787044287 2985.5305463448167 6655.0478363707662 1414.8365439623594 942.66170142591 937.40235230326653 1582.7389527782798 2247.7378479093313 2511.2304618880153 367.24677031487226 1985.0802454352379 622.94244536757469 1212.5647946149111 1607.8113760277629
leaf_count=9915 5056 1970 18323 495 9178 20362 399055 2441 4986 7687 45512 47955 6099 47411 41932 3009 3268 29942 43239 8337 6722 7413 13404 20471 17315 3119 12745 3762 7442 14576
internal_value=0 0.0286204 0.0354455 0.0376922 -0.00670676 0.0311738 -0.0513966 0.0383506 0.00408757 0.0439327 -0.0345745 0.0456787 0.00881896 0.0229299 0.0443104 0.00373686 0.0594312 -0.0221621 0.043858 0.0549339 0.0262173 0.0193081 0.0178959 -0.00145992 0.0284357 0.0210237 0.0403434 0.0423105 0.0516259 0.000499047
internal_weight=0 58050.8 48644.7 45424.3 9406.05 22246.8 32942 11873.6 5542.45 23177.5 4143.22 20468.7 4637.52 10373.2 18586.2 3220.47 1882.49 3863.6 8148.67 1493.62 3724.89 7505.03 2222.92 2474.44 3453.89 746.031 10550.2 8565.1 1835.51 2414.6
internal_count=863141 413518 325418 296849 88100 153735 449623 78549 48243 143114 50568 124791 39065 75186 113836 28569 10955 39857 52071 8832 26478 54824 18390 22441 24037 6128 65881 53136 11204 20675
cat_boundaries=0 1 7 8 9 11 17 18 20 26 28 34 35 36 38 44 45 51 57 58 64 65 67 69 75 77 78 79
cat_threshold=4 6588418 2129920 1660944899 2156003460 2173704371 1 8 2 2387772295 433428 2248146952 0 134217728 0 675282944 8 2 816580616 584 2 0 0 2155872384 2147485712 1 2392524451 1546244 787480 1056 134217729 2173706368 2119306505 8 1 2 1640810584 9211 2214596864 0 0 0 1811939328 8 2 67108864 0 0 335544320 0 8 0 0 0 0 0 1 4 0 0 0 0 675282944 8 1 404960516 180228 1612974080 584 33554456 268435488 134217728 537919488 2080899072 8 2387808290 496773 100663304 2
is_linear=0
shrinkage=0.05


Tree=10
num_leaves=31
num_cat=22
split_feature=12 8 1 3 4 3 8 1 8 1 8 8 8 1 5 3 3 3 8 8 0 1 8 8 1 5 0 1 5 7
split_gain=49631.7 4940.04 1772.21 615.237 558.203 411.769 295.714 273.444 315.342 212.397 205.814 189.292 157.793 157.577 128.524 127.354 110.413 109.761 103.976 92.5544 90.8705 77.1454 102.6 102.33 72.9906 71.0225 70.1856 68.7007 63.5708 62.0312
threshold=0 1 57.500000000000007 2 3 4 5 38.500000000000007 6 70.500000000000014 7 8 9 27.500000000000004 10 11 12 13 14 15 16 38.500000000000007 17 18 27.500000000000004 19 20 35.500000000000007 21 32427.500000000004
decision_type=1 9 2 9 1 9 9 2 9 2 9 9 9 2 1 9 9 9 9 9 1 2 9 9 2 1 1 2 1 2
left_child=1 3 5 12 10 17 7 13 16 15 -2 -5 26 19 -10 -4 -9 -3 -17 -7 -13 23 -23 -19 -25 -11 -1 -15 -18 -16
right_child=4 2 9 11 -6 6 -8 8 14 25 -12 20 -14 27 29 18 28 21 -20 -21 -22 22 -24 24 -26 -27 -28 -29 -30 -31
leaf_value=0.021904704383276009 -0.0020991283944054285 0.010720840961463945 -0.00063842836487208732 -0.034382562653697414 -0.053559819186855179 0.046692584650883051 0.027624021034411896 0.041190227127676976 0.041925290145673005 -0.012541313028848658 -0.037698111355584846 -0.0044156452211347791 -0.014984353982471086 0.057094892189998296 0.039378389466671285 0.022991102618890924 0.13907002652297515 0.046467048266305697 0.0085738151731135828 0.018409384366246097 -0.018550893595492748 0.032684475271501617 0.017929341277512594 -0.0017082423515807793 0.031592461653484311 0.014219271202091814 0.0066450757286725826 0.046429535143735788 0.027926164155922889 0.062084909364181998
leaf_weight=1487.1714127957821 470.8384648412466 971.45537782460451 1065.5277333557606 1203.8439022451639 27513.363295152783 640.46568083763123 4632.376473993063 2296.1859855204821 10474.983866721392 1050.020254984498 3561.5802221596241 2098.3040370419621 543.26551651209593 3827.7613048255444 391.94808958470821 3854.8305097222328 12.889822691679001 1233.5522447600961 1909.5980153679848 607.51514852792025 2481.7543359845877 2546.0279723256826 2391.9382427930832 217.77058916538954 673.32770204544067 324.58150058984756 1527.4835959374905 2493.4991407841444 6818.9052959084511 1293.1063842475414
leaf_count=11534 5008 7094 8514 13807 399018 4596 30285 14410 63185 10060 45637 20265 5234 21307 2259 28514 81 7847 15067 4469 24776 16907 16617 1851 4304 2733 12350 14496 44110 7178
internal_value=0 0.0266702 0.0329381 -0.00669423 -0.0509974 0.0371404 0.0395942 0.0415056 0.0386177 0.01171 -0.0336402 -0.0167485 0.00965155 0.0496823 0.0439508 0.015319 0.0314304 0.0268289 0.0182382 0.033446 -0.0120487 0.0290263 0.0256396 0.037034 0.023194 -0.0062224 0.014126 0.0528878 0.0280947 0.0568033
internal_weight=0 59070.1 49728.3 9341.82 31545.8 41523.7 33489.6 28857.3 21288 8204.56 4032.42 5783.9 3557.92 7569.24 12160 6829.96 9127.98 8034.07 5764.43 1247.98 4580.06 7062.62 4937.97 2124.65 891.098 1374.6 3014.66 6321.26 6831.8 1685.05
internal_count=863513 413850 325884 87966 449663 260996 206376 176091 131223 64888 50645 58848 29118 44868 72622 52095 58601 54620 43581 9065 45041 47526 33524 14002 6155 12793 23884 35803 44191 9437
cat_boundaries=0 1 7 9 10 12 18 23 29 35 40 41 43 45 47 53 59 60 66 72 73 74 75
cat_threshold=8 6294018 32768 587218947 2156961924 2173704347 1 1890408568 584 1 2387624867 1547428 3321925768 1040 134217728 285212672 1816133888 8 4096 16 0 268435456 1279262976 263192 1056 134217729 2172657792 2119310601 8 0 0 0 0 0 1 4196352 0 33554432 1089536 25169920 2 2205201959 497828 1610909784 585 2147483651 69632 100732952 16777216 134217728 67108864 2080899072 8 0 0 0 268435456 138412032 8 2 2214592664 0 0 0 1006632960 8 0 0 0 268435456 738197504 8 2 2 1
is_linear=0
shrinkage=0.05


Tree=11
num_leaves=31
num_cat=7
split_feature=11 10 1 4 1 7 9 9 9 9 13 0 9 1 1 9 9 9 9 9 5 13 5 5 9 9 9 9 9 9
split_gain=45943.9 3964.38 655.699 570.03 315.543 309.144 232.428 226.064 438.743 133.42 117.362 126.964 108.525 107.532 108.239 105.218 104.271 107.95 103.352 108.555 91.9943 89.1477 82.6116 82.2605 78.7655 210.484 161.954 274.429 108.3 118.112
threshold=0 1 54.500000000000007 2 21.500000000000004 2978.5000000000005 244.50000000000003 117.50000000000001 65.500000000000014 80.500000000000014 262209.00000000006 3 63.500000000000007 27.500000000000004 36.500000000000007 255.50000000000003 84.500000000000014 103.50000000000001 102.50000000000001 99.500000000000014 4 15309.000000000002 5 6 197.50000000000003 215.50000000000003 222.50000000000003 223.50000000000003 186.50000000000003 179.50000000000003
decision_type=1 1 2 1 2 2 2 2 2 2 2 1 2 2 2 2 2 2 2 2 1 2 1 1 2 2 2 2 2 2
left_child=1 2 5 -2 23 21 7 8 12 -10 11 -6 -7 -9 -15 -8 -11 18 19 -18 -4 -1 -12 -3 28 -26 -27 -28 29 -16
right_child=3 4 20 -5 10 6 15 13 9 16 22 -13 -14 14 24 -17 17 -19 -20 -21 -22 -23 -24 -25 25 26 27 -29 -30 -31
leaf_value=0.018189770205415536 -0.032892605964863639 0.011776592053870539 0.015135417218323184 -0.053328123941075334 0.0049385628968435062 0.041319035480460613 0.014916594014702253 0.017739486658052889 0.010204166138009882 0.046097453207638764 0.0020624210123054705 -0.0095184739133298609 0.070920680800373281 0.051040769607969987 0.037756282814793291 0.030561227480295734 0.013293463684714447 0.033272080209588765 -0.018146301675729642 0.042689040854238303 0.028611902907912719 0.028847595086600293 0.019108540898523874 -0.023527321298745726 0.05791210724877225 0.013250810342754918 0.12213827253324741 0.038722407138623655 0.024196574448487589 0.061556774961045307
leaf_weight=3004.9171771332622 3921.6307891383767 181.5446543097496 6333.142250828445 26282.359144091606 3062.0242910161614 4548.1424397975206 1386.6596094071865 455.32508362084627 1503.8168211430311 641.07791008800268 1514.7904826849699 3013.0417977049947 332.2458390891552 2923.8554162457585 5675.3473554998636 4777.7247289642692 1367.1450328826904 1759.3973897397518 196.77063198387623 407.73974701762199 1582.822646856308 5653.5659081786871 1339.1090922057629 1810.6339350417256 1958.7185901105404 591.92030862718821 103.82346349954605 1959.3944079354405 1323.2856727093458 573.98781784623861
leaf_count=20612 50645 1470 45661 399018 28326 27383 8800 3489 9659 3878 13312 29316 1917 16923 34277 30046 8670 10814 1245 2554 10403 35413 10528 20099 11482 3627 588 11816 8077 3465
internal_value=0 0.0249407 0.0310021 -0.0506748 -0.00231507 0.0335438 0.0357813 0.037828 0.0322539 0.0230508 0.00169728 -0.00223167 0.0433342 0.0416799 0.0424013 0.027042 0.0274695 0.0242688 0.0162348 0.0200464 0.0178301 0.0251488 0.0100608 -0.0203101 0.0403285 0.0454783 0.0363057 0.04292 0.0371908 0.0399423
internal_weight=0 59982 49060.8 30204 10921.1 41144.9 32486.4 26322 10756.3 5875.95 8928.97 6075.07 4880.39 15565.7 15110.3 6164.38 4372.13 3731.05 1971.66 1774.88 7915.96 8658.48 2853.9 1992.18 12186.5 4613.86 2655.14 2063.22 7572.62 6249.34
internal_count=863513 413850 310799 449663 103051 254735 198710 159864 66120 36820 81482 57642 29300 93744 90255 38846 27161 23283 12469 11224 56064 56025 23840 21569 73332 27513 16031 12404 45819 37742
cat_boundaries=0 1 2 3 4 5 6 7
cat_threshold=4 6 1 2 2 2 2
is_linear=0
shrinkage=0.05


Tree=12
num_leaves=31
num_cat=11
split_feature=11 8 1 4 8 9 9 9 8 9 10 8 9 1 9 1 9 8 9 0 9 9 9 9 9 8 1 8 9 1
split_gain=42568.9 4023.79 1338.42 582.554 380.84 311.517 304.908 550.173 208.385 180.217 179.141 164.92 157.058 139.148 136.285 134.17 129.661 128.317 121.975 107.193 104.657 97.1964 94.7834 157.653 87.8248 83.5923 78.0879 83.3733 75.8169 75.1231
threshold=0 1 59.500000000000007 2 3 244.50000000000003 117.50000000000001 65.500000000000014 4 80.500000000000014 5 6 84.500000000000014 36.500000000000007 33.500000000000007 70.500000000000014 245.50000000000003 7 99.500000000000014 8 34.500000000000007 16.500000000000004 63.500000000000007 60.500000000000007 116.50000000000001 9 26.500000000000004 10 72.500000000000014 52.500000000000007
decision_type=1 9 2 1 9 2 2 2 9 2 1 9 2 2 2 2 2 9 2 1 2 2 2 2 2 9 2 9 2 2
left_child=1 4 5 8 -1 6 7 14 -2 28 -6 13 -11 26 21 25 -7 -15 -14 -12 -16 -3 23 -22 -20 -4 27 -8 -9 -18
right_child=3 2 15 -5 10 16 11 9 -10 12 19 -13 18 17 20 -17 29 -19 24 -21 22 -23 -24 -25 -26 -27 -28 -29 -30 -31
leaf_value=-0.028213745513471014 0.00044348285965727639 0.045676041404378316 0.017297060803172979 -0.053107099508262971 0.009007324933058088 -0.015025472582334554 0.010174325352471583 0.020783581298622695 -0.036325932076449144 0.043762744979365165 0.00045030965584366592 0.026788235445885263 0.010827975415619716 0.032006892928419683 0.07304957225898577 -0.0059251284934434337 0.026437918598381384 0.04186562779729612 0.029341204839992203 -0.013705577478406634 0.043623970823517606 0.024097386034500387 0.06380221145188851 0.0101456870408312 -9.9171839977726118e-05 0.0047029799748175838 0.051884849977849416 0.047247900664942936 0.00045707005848159886 0.013173473559467833
leaf_weight=1647.7148721590638 444.34741340577602 725.55436497181654 2953.2067559808493 25101.974829822779 2560.5282727405429 213.68012104928493 272.94468840956688 681.5729652941227 3371.3833918571472 873.70029565691948 2522.8283382952213 3064.2013799920678 1911.1424723193049 6424.3871577605605 303.85535834729671 1357.6188506484032 7024.7026895955205 8113.124111995101 2924.0680669844151 2845.8604096472263 2943.0848572924733 1858.6601005792618 461.27680526673794 399.37391565740108 277.34799470752478 2418.5036279559135 3008.0969265401363 397.85764787346125 1403.2713011354208 1258.6787695288658
leaf_count=18674 4843 4375 21709 399018 19790 1431 2129 4342 45802 5218 23266 19554 12091 39792 1744 12656 43264 46875 17996 28016 17433 11260 2630 2420 1695 19077 16074 2904 8994 8441
internal_value=0 0.0233428 0.0288968 -0.0503402 -0.0064134 0.0320425 0.0340728 0.0285514 -0.0321381 0.0197624 -0.0018534 0.0379031 0.0241716 0.0397362 0.039152 0.00811848 0.0234303 0.0375597 0.0208236 -0.0070404 0.0448117 0.0301559 0.0425559 0.0396238 0.0267907 0.0116678 0.0484449 0.033019 0.00710217 0.0244224
internal_weight=0 60846.8 51269.9 28917.7 9576.93 44540.6 36043.5 14762.9 3815.73 8071.1 7929.22 21280.6 5986.26 18216.4 6691.81 6729.33 8497.06 14537.5 5112.56 5368.69 4107.59 2584.21 3803.74 3342.46 3201.42 5371.71 3678.9 670.802 2084.84 8283.38
internal_count=863513 413850 324104 449663 89746 270662 217526 90198 50645 50336 71072 127328 37000 107774 39862 53442 53136 86667 31782 51282 24227 15635 22483 19853 19691 40786 21107 5033 13336 51705
cat_boundaries=0 1 7 8 14 20 21 27 32 33 39 44
cat_threshold=4 6294018 537952256 587218947 2155880580 2173704347 1 1 2 0 0 0 0 1 263192 1056 134217729 2155872384 2119179273 8 2 2248179848 0 134217728 268435456 1816133632 8 32896 0 134217728 268435456 71303168 2 100663304 0 0 1048576 1544028160 8 67108864 0 0 0 671088640
is_linear=0
shrinkage=0.05


Tree=13
num_leaves=31
num_cat=6
split_feature=12 10 4 3 3 1 3 9 9 9 9 9 9 1 1 9 9 9 9 9 9 1 1 1 1 9 9 9 9 9
split_gain=39482.4 3052.36 594.676 589.946 558.923 396.917 161.833 142.73 159.226 296.236 107.603 271.202 120.059 105.582 101.563 97.2897 92.3878 273.72 122.763 86.5999 100.116 85.715 98.2233 78.2673 75.4153 67.3346 61.9152 118.728 61.2902 83.2181
threshold=0 1 2 3 4 54.500000000000007 5 244.50000000000003 197.50000000000003 213.50000000000003 222.50000000000003 223.50000000000003 215.50000000000003 27.500000000000004 22.500000000000004 239.50000000000003 65.500000000000014 104.50000000000001 189.50000000000003 207.50000000000003 204.50000000000003 74.500000000000014 21.500000000000004 52.500000000000007 51.500000000000007 255.50000000000003 80.500000000000014 86.500000000000014 188.50000000000003 186.50000000000003
decision_type=1 1 1 9 9 2 9 2 2 2 2 2 2 2 2 2 2 2 2 2 2 2 2 2 2 2 2 2 2 2
left_child=1 4 -2 21 5 7 23 8 16 19 12 -12 -11 -8 -5 -13 -1 26 28 20 -10 22 -3 -6 -15 -9 -18 -28 29 -19
right_child=2 3 -4 14 6 -7 13 25 9 10 11 15 -14 24 -16 -17 17 18 -20 -21 -22 -23 -24 -25 -26 -27 27 -29 -30 -31
leaf_value=0.038241952425348211 -0.031395099709334344 -0.0067251333717014295 -0.052895952246314527 -0.022386833291987165 0.014508588442697382 0.018388228896638249 -0.0039288581808579201 0.015247536888209757 0.056698413202003806 0.043362972969021099 0.10649022707969469 0.027825318026925436 0.0084598487332200514 0.025902256981979645 -0.0083285555066839635 0.049245294086336017 0.0098811616876686523 0.036359650874550654 0.01801958342609096 0.068492416124994557 0.021343330458511826 -0.011918468939791819 0.01372426512609509 -0.00083176912837426217 0.015186737413183363 0.028376163207992713 0.040068445782168095 0.016156331886968484 0.064547718862363199 0.01204771038364994
leaf_weight=4657.0723748728633 3714.2583176717162 676.32516200095415 23970.645112194121 2179.7481705099344 3661.9907529875636 5826.448296546936 366.36201280355453 1249.8346771523356 764.283457249403 371.44987697154284 140.28831969201565 1592.191509090364 731.7407159730792 7140.0171586126089 3128.8770113289356 794.70832180976868 1321.9023594707251 9176.9412811398506 1054.7674322798848 923.92094410210848 271.317258708179 441.94512550532818 4456.5204125717282 1075.7254985198379 2132.3878973573446 4468.2573643699288 739.23829075694084 1743.2365971282125 184.17623038589954 366.01911053806543
leaf_count=26163 50645 6409 399018 24728 25173 39425 3099 7611 4185 2057 729 9067 4253 44086 31193 4431 8201 52240 6112 4988 1530 4212 36509 8008 14810 26681 4229 10586 1049 2086
internal_value=0 0.0218759 -0.0499933 -0.00215818 0.027029 0.0303394 0.0186371 0.0326286 0.0342685 0.041697 0.0332406 0.0389279 0.0202119 0.0223746 -0.0140744 0.034957 0.0321107 0.0301531 0.0342217 0.057364 0.0474357 0.00919404 0.0110298 0.0110023 0.023438 0.0255066 0.0186223 0.0232769 0.0359785 0.0354272
internal_weight=0 61637.7 27684.9 10883.4 50754.3 36377.8 14376.5 30551.3 24833.3 5589.9 3630.38 2527.19 1103.19 9638.77 5308.63 2386.9 19243.4 14586.3 10781.9 1959.52 1035.6 5574.79 5132.85 4737.72 9272.41 5718.09 3804.38 2482.47 9727.14 9542.96
internal_count=863513 413850 449663 103051 310799 215623 95176 176198 141906 31240 20537 14227 6310 61995 55921 13498 110666 84503 61487 10703 5715 47130 42918 33181 58896 34292 23016 14815 55375 54326
cat_boundaries=0 1 2 3 5 7 9
cat_threshold=8 6 1 1890343032 842 1905014872 1065801 2219835939 497700
is_linear=0
shrinkage=0.05


Tree=14
num_leaves=31
num_cat=14
split_feature=11 8 4 3 3 8 5 8 3 8 8 8 9 9 9 9 9 9 9 9 9 9 3 8 9 9 9 9 9 9
split_gain=36679.4 3264.75 607.444 496.18 408.554 259.787 233.503 210.92 176.391 156.546 121.199 113.718 113.04 144.241 177.311 101.586 97.7877 252.532 97.2625 104.733 99.0716 90.7244 82.8567 82.6302 74.5021 66.4602 64.2147 64.023 63.0583 92.8666
threshold=0 1 2 3 4 5 6 7 8 9 10 11 244.50000000000003 197.50000000000003 213.50000000000003 244.50000000000003 65.500000000000014 103.50000000000001 127.50000000000001 69.500000000000014 128.50000000000003 239.50000000000003 12 13 33.500000000000007 207.50000000000003 245.50000000000003 102.50000000000001 80.500000000000014 88.500000000000014
decision_type=1 9 1 9 9 9 1 9 9 9 9 9 2 2 2 2 2 2 2 2 2 2 9 9 2 2 2 2 2 2
left_child=1 3 7 11 23 12 10 -2 -8 -5 -7 -1 13 16 25 18 24 27 19 -10 -20 -16 -11 -3 -6 -15 -14 28 -18 -30
right_child=2 4 -4 9 5 6 8 -9 15 22 -12 -13 26 14 21 -17 17 -19 20 -21 -22 -23 -24 -25 -26 -27 -28 -29 29 -31
leaf_value=0.010749534561426077 0.0022164522949547146 -0.022420061325549086 -0.052693953180052447 -0.032481588862899348 0.027763108350755607 0.048114835910731749 0.030144359191752852 -0.035067688299925119 0.023874656641994285 -0.0031090393992233342 0.017563236782030152 -0.014067683735562195 -0.014633036768626886 0.043695702439215861 0.027852035192510755 0.011333444672768927 0.0072694716203006542 0.031857944783539864 0.077051686017633472 0.010879677960971314 0.024235794723263496 0.048830652970399083 -0.016989367155441536 0.012344517166569946 0.042409064773974964 0.064144765189893704 0.024275630450826736 -0.016325297858631137 0.037415231882002874 0.013568538768716616
leaf_weight=3378.6864304244518 437.91840798407793 170.01560252904892 22886.786913558841 1122.3393831625581 1401.1215702667832 1322.1220995634794 4810.2647209316492 3179.4918231070042 2726.8647691905499 1780.0327589586377 481.57627704739571 526.75654528290033 108.62944868952036 842.85891839116812 2266.9130508601665 3298.4899747148156 1093.3674162179232 8536.6332068070769 89.834653407335281 3594.1144231706858 7629.050891160965 666.99416753649712 2771.1126767769456 4381.531534537673 2283.3456710278988 751.68756657838821 4453.6278789713979 155.03795648366213 657.17043594270945 1077.9257287159562
leaf_count=25746 4907 1284 399018 13807 8265 7322 29031 45738 16773 16698 3145 5207 723 4799 13244 21304 6892 49954 524 23193 47221 3815 28490 30548 13048 4139 27222 968 3865 6623
internal_value=0 0.020528 -0.0496846 -0.00633219 0.0253975 0.0267531 0.0230128 -0.0306449 0.0216136 -0.0157641 0.0403219 0.00737487 0.0304297 0.0320822 0.0399152 0.0192184 0.0297492 0.0274815 0.0210845 0.0164857 0.0248505 0.0326213 -0.0115792 0.0109996 0.0368395 0.0533356 0.0233492 0.0149593 0.0166742 0.0226005
internal_weight=0 62378.1 26504.2 9578.93 52799.2 48247.6 23952.3 3617.41 22148.6 5673.48 1803.7 3905.44 24295.3 19733.1 4528.45 17338.4 15204.6 11520.1 14039.9 6320.98 7718.89 2933.91 4551.15 4551.55 3684.47 1594.55 4562.26 2983.5 2828.46 1735.1
internal_count=863513 413850 449663 89948 323902 292070 148513 50645 138046 58995 10467 30953 143557 115612 25997 109015 89615 68302 87711 39966 47745 17059 45188 31832 21313 8938 27945 18348 17380 10488
cat_boundaries=0 1 7 8 10 12 18 19 25 27 33 37 42 44 49
cat_threshold=4 6294018 537952256 553664515 2156929156 2173704347 1 1 1890408568 584 2253390371 497668 2248212488 1040 134217728 33554432 1816133888 8 1 263184 32 134217729 2164260992 2119179273 8 1610877016 1753 0 0 0 0 0 1 0 0 0 335544320 4196352 537919488 0 1056768 25169922 151004160 24995 553656448 276824064 0 603979776 33554432
is_linear=0
shrinkage=0.05


Tree=15
num_leaves=31
num_cat=22
split_feature=12 8 1 12 3 1 8 8 1 8 1 5 8 8 8 3 3 3 8 5 8 7 3 7 3 3 8 9 9 0
split_gain=34223 2822.63 1045.22 581.312 442.53 248.735 398.073 192.767 183.057 151.805 144.666 135.248 321.615 127.539 126.858 120.372 107.07 102.722 99.6079 77.7521 76.1426 73.207 75.85 71.5318 69.6283 68.1512 59.2496 58.8579 65.9994 58.7085
threshold=0 1 57.500000000000007 2 3 38.500000000000007 4 5 23.500000000000004 6 74.500000000000014 7 8 9 10 11 12 13 14 15 16 47609.500000000007 17 2978.5000000000005 18 19 20 244.50000000000003 117.50000000000001 21
decision_type=1 9 2 1 9 2 9 9 2 9 2 1 9 9 9 9 9 9 9 1 9 2 9 2 9 9 9 2 2 1
left_child=1 4 5 7 13 8 11 -2 20 19 15 17 -13 24 -6 18 26 -7 -4 -10 -3 22 -21 -11 -1 -18 -8 28 -27 -16
right_child=3 2 10 -5 14 6 16 -9 9 23 -12 12 -14 -15 29 -17 25 -19 -20 21 -22 -23 -24 -25 -26 27 -28 -29 -30 -31
leaf_value=0.019252438765595969 0.0014019205528222535 2.2845828137970524e-05 0.016441856787934667 -0.052458168056004867 -0.033336017339910554 0.017094951361981144 -0.022872414995837229 -0.034624127638321109 0.0091407860931799392 0.013099911187183315 -0.016331350686234595 -0.02448329855102907 0.046971468314853604 -0.013095593317941879 -0.0058839667830845408 -0.0049503682634357594 0.029089219966172974 0.029966648198131753 0.0034101574852474295 0.024065524278836646 0.026763188943160789 0.025560475131030394 0.040900840953339651 0.03493029787374495 0.0045090192312500577 0.015758241027832388 0.011607519677142982 0.011514064494995806 0.024583042364823334 -0.018384437951953408
leaf_weight=1092.6426879018545 430.06141400337219 558.44005474448204 4483.3194930925965 21852.055221389979 910.71739823371172 1890.9575385972857 122.30041492730379 3092.6302116140723 243.29243410378695 1116.427516721189 580.05274219810963 168.54420553147793 2033.0304317623377 813.74149458855391 1776.4613640084863 1213.4204308539629 2168.4673702046275 12286.182359203696 2205.2214425727725 854.39395296573639 507.39314543455839 1091.5519085600972 7754.6908070892096 565.22583572566509 3005.6933067291975 3600.9508816599846 2775.4366133883595 2037.2695451080799 5147.1528358906507 1993.0402162745595
leaf_count=8127 4797 4453 31862 399077 11579 11512 875 45820 1307 6779 5520 969 10617 8423 17180 9507 12497 68076 16965 5107 3740 5761 41205 3287 24684 21826 18020 12659 30279 20537
internal_value=0 0.019377 0.0238631 -0.049386 -0.00559737 0.0269071 0.0245724 -0.0302344 0.0328362 0.0346544 0.00776978 0.0300551 0.0416033 0.00488391 -0.0165849 0.00953895 0.0188765 0.028283 0.0121568 0.0370215 0.013004 0.0377589 0.0393055 0.0203166 0.008477 0.0208352 0.0100786 0.0191503 0.0209505 -0.0124603
internal_weight=0 62996 53403.7 25374.7 9592.3 44921.7 32230.3 3522.69 12691.4 11625.6 8482.01 16378.7 2201.57 4912.08 4680.22 7901.96 15851.6 14177.1 6688.54 9943.93 1065.83 9700.64 8609.08 1681.65 4098.34 12953.8 2897.74 10785.4 8748.1 3769.5
internal_count=863047 413353 322823 449694 90530 258969 187330 50617 71639 63446 63854 91174 11586 41234 49296 58334 96156 79588 48827 53380 8193 52073 46312 10066 32811 77261 18895 64764 52105 37717
cat_boundaries=0 1 7 8 10 16 22 28 29 35 40 46 48 50 52 58 59 64 66 68 70 74 75
cat_threshold=8 6589186 538968064 553665027 2155880452 2173704339 1 2 1907195000 74345 2264928408 134222864 138412032 0 675282944 8 262160 1056 134217728 8388736 2119305481 8 2214609024 8388608 0 369098752 1816658176 8 2 0 1024 0 0 675282944 8 4229376 536870912 16777216 8192 16777218 0 0 0 0 0 1 948841944 1076059 2157450151 1547264 2387612707 1572261 100728856 16777216 134217728 68157440 2080374784 8 4 67108864 0 0 67108864 1879048192 242287139 1252390 539756560 584 553912320 621 8192 277872640 0 84934656 2
is_linear=0
shrinkage=0.05


Tree=16
num_leaves=31
num_cat=7
split_feature=11 10 4 1 1 7 9 5 5 1 1 1 1 9 9 9 9 1 10 7 13 13 7 1 9 9 9 9 9 5
split_gain=31857.6 2236.5 608.065 423.579 222.909 194.135 127.05 124.173 100.635 96.0643 150.669 88.159 86.8268 81.6126 81.488 146.498 80.0674 71.1082 70.3569 68.1501 67.794 57.2888 54.5312 50.9754 44.7665 95.3008 44.5791 52.8519 87.116 42.666
threshold=0 1 2 50.500000000000007 22.500000000000004 2978.5000000000005 244.50000000000003 3 4 38.500000000000007 27.500000000000004 60.500000000000007 74.500000000000014 245.50000000000003 117.50000000000001 69.500000000000014 80.500000000000014 20.500000000000004 5 47778.500000000007 14896.000000000002 13522.000000000002 51323.500000000007 26.500000000000004 27.500000000000004 26.500000000000004 244.50000000000003 197.50000000000003 213.50000000000003 6
decision_type=1 1 1 2 2 2 2 1 1 2 2 2 2 2 2 2 2 2 1 2 2 2 2 2 2 2 2 2 2 1
left_child=1 3 18 5 8 21 9 11 -3 10 -7 26 20 -8 15 24 -17 -10 -2 -12 -6 -1 -9 -15 25 -11 27 -5 -29 -22
right_child=2 4 -4 7 12 6 13 22 17 14 19 -13 -14 23 -16 16 -18 -19 -20 -21 29 -23 -24 -25 -26 -27 -28 28 -30 -31
leaf_value=0.012170255426672574 -0.020097422732827729 0.014410417430530002 -0.052295691867856813 0.014441956912857316 -0.0061029279815188299 0.012340860802695787 -0.018335513194820772 0.021531567489994879 -0.03358559813962303 0.025410258129379748 0.037285543179196121 0.004233346365716823 -0.015920814257032803 -0.013316223723883643 0.029329584050808863 0.0011306922608720754 0.019183836595625607 -0.012452417843608558 -0.035423325191747769 0.02273579487566274 0.019237256584773925 0.021169551351779059 0.040440645922639205 0.021877818143114878 0.033069014688872432 -0.029733750514322088 0.0078008714240904555 0.040766584713310725 0.016490582149964014 0.0049654391575526414
leaf_weight=2575.9879058599472 1343.62838640064 306.6689228117466 20859.049680899829 5650.5836688578129 1327.7952874749899 786.88901421427727 133.51559080928564 2079.634899623692 467.62282828241587 800.75098747760057 6198.8591089248657 2383.063005886972 591.95902322232723 104.84986065328121 9955.4727398082614 790.21800629794598 2756.8418848961592 2675.1223058477044 2089.1602321267128 924.8959478661418 585.94249852746725 5641.2201808318496 466.87761603295803 5497.1949854642153 2524.756386756897 86.847813062369823 1719.6232896149158 554.34492608159781 1108.6498461440206 4927.9535541832447
leaf_count=16624 19385 2309 399077 35811 13008 5745 879 12545 6012 4466 33548 16920 5715 794 54418 4865 15917 28297 31232 4821 4375 32789 2684 31972 13711 488 11218 3359 6920 43143
internal_value=0 0.0182219 -0.0490865 0.022478 -0.00242213 0.025171 0.0270054 0.0150148 -0.0129291 0.028555 0.0331031 0.0127878 0.00245014 0.0202983 0.026428 0.0222772 0.0151619 -0.0155969 -0.0295863 0.0353965 0.00403964 0.0183484 0.0249984 0.0212191 0.0296734 0.0200146 0.0150446 0.0167478 0.0245828 0.00648206
internal_weight=0 63624.1 24291.8 52741.1 10883.1 38778.3 30561.1 13962.8 3449.41 24825.5 7910.64 11416.3 7433.65 5735.56 16914.9 6959.42 3547.06 3142.75 3432.79 7123.76 6841.69 8217.21 2546.51 5602.04 3412.36 887.599 9033.2 7313.58 1662.99 5513.9
internal_count=863047 413353 449694 310494 102859 221037 171624 89457 36618 137979 44114 74228 66241 33645 93865 39447 20782 34309 50617 38369 60526 49413 15229 32766 18665 4954 57308 46090 10279 47518
cat_boundaries=0 1 2 3 4 5 6 7
cat_threshold=4 6 1 2 2 2 4
is_linear=0
shrinkage=0.05


Tree=17
num_leaves=31
num_cat=20
split_feature=11 8 4 10 3 10 8 8 3 8 8 3 8 3 3 3 8 3 7 8 9 9 9 9 9 3 9 9 9 9
split_gain=29666.9 2326.27 620.482 566.3 388.823 288.914 249.651 194.9 170.34 125.148 108.141 103.927 103.594 96.7632 80.8824 64.7933 60.3016 57.2928 54.1654 54.4676 51.2819 63.9425 115.749 55.3164 60.1933 51.2297 51.0028 137.26 51.8932 84.9425
threshold=0 1 2 3 4 5 6 7 8 9 10 11 12 13 14 15 16 17 2978.5000000000005 18 244.50000000000003 201.50000000000003 213.50000000000003 202.50000000000003 207.50000000000003 19 65.500000000000014 103.50000000000001 27.500000000000004 26.500000000000004
decision_type=1 9 1 1 9 1 9 9 9 9 9 9 9 9 9 9 9 9 2 9 2 2 2 2 2 9 2 2 2 2
left_child=1 4 7 14 10 12 8 -2 -7 -6 17 -8 13 -5 16 -15 -3 -1 -14 -20 21 26 23 -23 -25 -13 28 -28 29 -17
right_child=2 3 -4 5 9 6 11 -9 -10 -11 -12 25 18 15 -16 20 -18 -19 19 -21 -22 22 -24 24 -26 -27 27 -29 -30 -31
leaf_value=0.017936035099174696 0.0036489316176458995 0.010813865746320046 -0.052116261653364832 0.035459514033857102 -0.032395776316386668 0.025693826172190237 0.021325286493150752 -0.033306767071304665 0.010729553546578546 -0.011571475849469099 -0.011797293650003246 -0.008889562796611258 0.011041186503605907 0.004512951518108199 -0.016890279328229448 0.026211971562187821 -0.0040340107554948709 0.00436728840674948 0.039469240025687601 0.017207293668356171 0.020968378518487804 0.084559971974692144 0.027555848299650045 0.026669062379426102 0.05357965648794475 0.010997327410916356 0.013929526060192805 0.027602465645688509 0.035548751861446355 -0.027169228628653078
leaf_weight=1062.3224761560559 411.69097481667995 1578.0291955992579 19908.33417359367 3255.5860518813133 887.6091487929225 11253.387822046876 2832.9207057654858 2935.9167505204678 2347.5004946440458 3971.2243902534246 823.09609272330999 332.98040454089642 1631.86104234308 366.73594143986702 520.11053028702736 756.44037668406963 1196.4364817067981 2919.1500002518296 424.75102892518044 944.37246613204479 3662.6472612470388 93.225106671452522 2316.4981733709574 320.370481133461 591.37334601581097 8124.6536518037319 2457.3537263572216 7253.7325812280178 2220.3940531760454 82.66680933535099
leaf_count=7770 4677 13000 399077 16703 11685 63868 17795 45940 15205 39390 8499 2532 9622 2389 4731 4014 10355 23816 2328 5481 20429 463 12045 1636 2905 52970 13872 37986 11416 448
internal_value=0 0.0171413 -0.0487672 0.0211436 -0.00547377 0.0224366 0.0185423 -0.0288505 0.0231208 -0.0154344 0.00461046 0.0130114 0.026103 0.0272462 0.00101442 0.0259003 0.0044195 0.00802352 0.017137 0.0245277 0.0262949 0.0275235 0.0337037 0.0478748 0.0441238 0.0102048 0.0259162 0.0241426 0.0315457 0.020953
internal_weight=0 64227.4 23255.9 54564 9663.4 51269.5 24891.4 3347.61 13600.9 4858.83 4804.57 11290.6 26378 23377 3294.58 20121.4 2774.47 3981.47 3000.98 1369.12 19754.7 16092.1 3321.47 1004.97 911.744 8457.63 12770.6 9711.09 3059.5 839.107
internal_count=863047 413353 449694 322193 91160 294107 152370 50617 79073 51075 40085 73297 141737 124306 28086 107603 23355 31586 17431 7809 105214 84785 17049 5004 4541 55502 67736 51858 15878 4462
cat_boundaries=0 1 7 8 9 11 12 18 24 26 32 37 39 45 47 49 51 57 59 64 66
cat_threshold=4 6605570 538968064 553665027 2155880452 2173704339 1 1 8 1898806392 8809 2 2248147992 1024 134217728 0 675282944 8 0 1056 134217728 128 2119172105 8 1907101149 8778 0 0 0 0 0 1 4245760 536870912 16777216 0 16777218 1755827288 879 2214596744 5136 201326592 369098752 1816658176 8 537139224 513 940190204 18267 3 69632 100663320 150994976 0 1048576 1007157248 8 539232272 584 0 0 0 0 268435456 547 69632
is_linear=0
shrinkage=0.05


Tree=18
num_leaves=31
num_cat=19
split_feature=11 8 1 12 3 1 8 8 8 1 8 3 7 3 1 3 8 8 7 1 1 1 8 7 3 3 3 8 3 9
split_gain=27650.4 2057.76 758.951 618.479 371.268 218.441 327.616 183.703 140.283 150.503 133.844 110.32 102.846 98.3563 94.6548 87.6925 82.4767 72.7742 66.7815 70.9251 66.5084 70.2591 65.6094 59.4885 77.477 58.2561 56.0963 51.9558 50.975 48.0691
threshold=0 1 59.500000000000007 2 3 38.500000000000007 4 5 6 27.500000000000004 7 8 20799.000000000004 9 74.500000000000014 10 11 12 47609.500000000007 33.500000000000007 54.500000000000007 22.500000000000004 13 34334.500000000007 14 15 16 17 18 244.50000000000003
decision_type=1 9 2 1 9 2 9 9 9 2 9 9 2 9 2 9 9 9 2 2 2 2 9 2 9 9 9 9 9 2
left_child=1 4 5 7 16 8 11 -2 18 -10 -6 23 28 27 15 -4 -1 -17 19 -3 21 -12 -13 24 -7 -23 -15 -8 -11 -28
right_child=3 2 14 -5 10 6 13 -9 9 12 20 22 -14 26 -16 17 -18 -19 -20 -21 -22 25 -24 -25 -26 -27 29 -29 -30 -31
leaf_value=-0.033052085366392869 0.0031165818277063676 0.041336033690220403 -0.0066830520441852675 -0.05191605664389605 -0.01639895276098138 0.035368955491999227 -0.024279601622901964 -0.032605441705338495 0.0078435498928999519 0.0011694816911774371 -0.0050688958619463757 0.038856346705659309 0.031621776882980769 0.024419265440687461 -0.015157453749304488 0.013766295906034684 -0.013926549357300958 0.0018782477473575526 0.018716556635948855 0.02976964871671613 -0.020989167073221099 0.018456478821320729 0.015223070390733251 0.029066353807427527 0.018413405408435501 0.0053851991068570729 0.016888510975924847 0.0078040006181397531 0.021325433888326542 0.0088973628572076077
leaf_weight=710.01254748553038 417.9724312722683 2508.0734947025776 1096.7621518447995 18998.832344833761 794.22099646925926 880.33082763850689 123.39759707450867 2847.4880019724369 1372.7393966987729 387.85649199038744 987.48921836167574 321.86258493363857 3518.7362575829029 2071.8050482422113 566.48226584494114 3094.5570308864117 2993.1572381556034 2221.5962090045214 692.47026663273573 2810.7222616076469 225.03339649736881 1300.2830165401101 3653.6849994212389 9654.8237029761076 3429.4950595796108 2524.9313234910369 9989.3131539747119 2616.6626781001687 1908.8034970164299 2318.6690231785178
leaf_count=9726 4737 13509 8634 399077 9034 4697 888 45880 9694 2298 9357 1846 17748 11484 5519 21668 31144 17160 3644 14423 1873 9167 21230 50860 18320 20285 58071 16609 10320 14145
internal_value=0 0.0161411 0.0198416 -0.0484498 -0.00531206 0.022074 0.02001 -0.0280375 0.0275565 0.0227032 0.00255346 0.0247418 0.0262499 0.0150282 0.00443402 0.00616462 -0.0176726 0.00881119 0.0332669 0.0352238 0.00556796 0.00682129 0.0172291 0.0268667 0.0220016 0.00989077 0.0166904 0.00627609 0.0180195 0.0153706
internal_weight=0 64774 55238.8 22264.3 9535.13 48259.4 35060 3265.46 13199.4 7188.14 5831.96 17940.2 5815.4 17119.8 6979.4 6412.92 3703.17 5316.15 6011.27 5318.8 5037.74 4812.7 3975.55 13964.6 4309.83 3825.21 14379.8 2740.06 2296.66 12308
internal_count=863047 413353 322767 449694 90586 269786 198150 50617 71636 40060 49716 96953 30366 101197 52981 47462 40870 38828 31576 27932 40682 38809 23076 73877 23017 29452 83700 17497 12618 72216
cat_boundaries=0 1 7 8 10 16 22 28 34 36 38 40 46 52 58 60 62 64 68 70
cat_threshold=4 6589186 539000832 553665027 2155880452 2173704339 1 2 2387772295 433172 2248152216 134222864 205520896 0 675282944 8 16 1056 134217728 8388736 2119172105 8 2147483648 8388608 0 268435456 134217984 8 2 0 0 2155872256 2147483664 1 1881934212 584 2160591655 367616 3346321923 479392 0 0 0 0 0 1 100663304 16777216 0 1048576 2080374784 8 2147483656 0 134217728 0 134217728 8 1612711940 8 1612974104 584 537135104 589 16785408 277872640 0 84934656 3229221409 201988
is_linear=0
shrinkage=0.05


Tree=19
num_leaves=31
num_cat=19
split_feature=12 8 1 4 8 8 1 8 5 1 1 0 8 8 8 5 8 8 5 1 8 1 8 5 10 1 9 9 9 9
split_gain=25779.3 1832.07 674.832 644.229 243.299 172.09 150.387 248.613 154.209 143.63 135.546 113.568 102.704 95.816 87.566 53.6837 153.698 103.665 53.5078 52.9172 51.6198 48.9732 48.8163 47.687 47.4516 45.7181 43.7937 41.8064 39.2166 69.8075
threshold=0 1 54.500000000000007 2 3 4 36.500000000000007 5 6 27.500000000000004 70.500000000000014 7 8 9 10 11 12 13 14 22.500000000000004 15 33.500000000000007 16 17 18 48.500000000000007 244.50000000000003 255.50000000000003 197.50000000000003 213.50000000000003
decision_type=1 9 2 1 9 9 2 9 1 2 2 1 9 9 9 1 9 9 1 2 9 2 9 1 1 2 2 2 2 2
left_child=1 4 6 5 -1 -2 9 8 22 13 12 24 15 -3 21 17 -17 -4 -9 -13 -10 -11 26 -12 -6 -20 28 -28 -8 -30
right_child=3 2 10 -5 11 -7 7 18 20 14 23 19 -14 -15 -16 16 -18 -19 25 -21 -22 -23 -24 -25 -26 -27 27 -29 29 -31
leaf_value=-0.023721850274240716 0.0026609626767205418 0.0058815819506667531 0.0088007774567083492 -0.051776597795835336 0.011904607322577679 -0.031873321884630677 0.021666132275256197 0.0842559707258181 -0.016045139926476788 0.03863952575689579 -0.012111767928501693 -0.017807064000674881 0.0036685716578129025 0.02657189719496347 0.022700225198219386 -0.022141229159831216 0.028642610636984096 0.031661549355425325 0.017231167019256474 -0.0043301891411231261 0.039357303960832785 0.028859384128932877 0.034795388347070036 0.0097600300244645843 0.00040129402519159052 0.01131672481622654 0.0030060533399643864 0.019280716576494956 0.040273600102587154 0.022419227716895997
leaf_weight=1463.6744875833392 421.24026229977608 1213.2996636033058 4320.7608108818531 18129.475273370743 1379.5670785307884 2765.7221695408225 7746.6544687002897 28.658990994095802 42.947149679064751 2693.8593605458736 1034.6053065136075 941.34409715980291 4022.2675897106528 1060.604914881289 2949.7602550908923 164.63019071519375 1219.4684856757522 556.44937488436699 14336.536460518837 3219.5924779623747 1808.4288235157728 2438.7940803170204 845.454365670681 328.29092697054148 2540.5618259757757 4231.8509836643934 502.11727821826935 1842.8491546362638 870.53085066378117 1475.1662319600582
leaf_count=18665 4766 8591 28441 399077 10022 45851 40538 152 227 12987 9923 10195 29066 6790 15527 1090 7023 3706 79831 28343 8862 12081 4502 2680 23564 25789 2826 10087 4246 7599
internal_value=0 0.0152079 0.0186747 -0.0481096 -0.00503379 -0.0274004 0.0215059 0.0198878 0.0246628 0.0267761 0.00797351 -0.0016238 0.00993721 0.0156748 0.0298993 0.0139361 0.0226492 0.011492 0.01598 -0.00737911 0.038198 0.0339264 0.0227948 -0.00684335 0.00448092 0.0158832 0.0219334 0.0157959 0.0233812 0.0290453
internal_weight=0 65278.7 55734 21316.4 9544.74 3186.96 44087.5 33731.2 15134.1 10356.3 11646.5 8081.07 10283.6 2273.9 8082.41 6261.31 1384.1 4877.21 18597 4160.94 1851.38 5132.65 13282.8 1362.9 3920.13 18568.4 12437.3 2344.97 10092.4 2345.7
internal_count=863047 413353 322564 449694 90789 50617 240635 184659 78887 55976 81929 72124 69326 15381 40595 40260 8113 32147 105772 38538 9089 25068 69798 12603 33586 105620 65296 12913 52383 11845
cat_boundaries=0 1 7 8 14 20 26 27 28 34 39 45 46 51 56 57 63 65 66 67
cat_threshold=8 6310146 539000864 553648643 2172657668 2173704339 1 1 2 0 0 0 0 1 16 1056 134217728 8388736 2119174409 8 2214597784 134222864 201326592 0 138412032 8 2 2 100667416 16777216 134217728 1048576 2080505856 8 67108864 0 0 67108864 1442840576 67108864 0 0 268435456 134217728 8 2 0 0 0 0 1006632960 100667408 16777216 0 0 268566528 1 0 0 0 0 138412032 8 67114128 134221824 2 2
is_linear=0
shrinkage=0.05


Tree=20
num_leaves=31
num_cat=21
split_feature=6 8 4 4 1 3 8 3 4 1 8 1 8 8 3 1 3 8 1 7 3 4 1 5 3 8 7 5 7 5
split_gain=22635.7 1859.54 809.085 695.525 605.028 391.197 192.31 171.038 160.593 133.942 117.662 135.923 137.645 101.285 84.0164 73.0752 70.994 68.4035 66.8908 64.9297 63.0587 59.8115 58.5309 54.0112 51.4872 50.9748 50.2561 43.27 42.782 61.0935
threshold=0 1 2 3 54.500000000000007 4 5 6 7 70.500000000000014 8 38.500000000000007 9 10 11 22.500000000000004 12 13 23.500000000000004 35830.500000000007 14 15 40.500000000000007 16 17 18 53950.500000000007 19 49145.500000000007 20
decision_type=1 9 1 1 2 9 9 9 1 2 9 2 9 9 9 2 9 9 2 2 9 1 2 1 9 9 2 1 2 1
left_child=1 5 4 6 7 8 -2 16 15 14 -9 18 24 -7 -6 -1 -3 28 -12 20 -14 -15 -17 -21 -13 -18 27 -20 -16 -30
right_child=3 2 -4 -5 9 13 -8 10 -10 -11 11 12 19 21 17 22 25 -19 26 23 -22 -23 -24 -25 -26 -27 -28 -29 29 -31
leaf_value=-0.0064452985100841662 0.008880138731173123 0.0005529544841621131 -0.043483947449617422 -0.052015365721317874 -0.0032444038232134899 -0.031001859116575711 -0.030596008303511946 0.012030491259074801 -0.045786628736581993 -0.0074381950809059849 0.012540590076613895 0.024981216473817403 0.032751467910364637 -0.011860047332100035 0.012181348577978202 0.011254984024069723 0.026246939135502707 0.0057474641577764628 0.0057331225780814735 0.025259389259791983 0.01741189959988473 -0.048109087522346994 -0.0069195609233914284 0.037031929969619105 0.014706249147184769 0.013975843210643282 0.012302277425578566 0.03043426040558983 0.015432829122723681 0.040169187195563394
leaf_weight=1033.3853569403291 348.14869759231806 897.2856884971261 550.91055415570736 16393.555021986365 1194.0983445420861 958.96643085032701 2772.5182749219239 2978.1079640984535 159.291603974998 1361.2318641617894 668.5083736628294 1470.0340655595064 822.58548618853092 4014.4155376106501 4149.8914483636618 3079.3439469411969 984.27083214372396 3856.6344488412142 181.42466425895691 6222.395474717021 4523.1540373116732 117.11725549399853 517.43176654726267 1155.1488559097052 8882.5886376947165 7493.0482074692845 428.92458177357912 7786.0645663887262 818.05889095366001 359.2176316678524
leaf_count=10524 3913 5891 12710 378214 8828 14170 46834 17192 3675 12663 4700 7753 4215 40927 26180 23223 5634 27393 896 31628 23270 2702 3683 5408 49690 43736 2130 38216 5232 1991
internal_value=0 0.0133304 0.016812 -0.0478969 0.0174057 -0.00668979 -0.0262615 0.0200697 0.00356784 0.00730866 0.0216776 0.0225675 0.0205366 -0.0163289 0.00924296 0.00527349 0.014008 0.0108583 0.0277623 0.0240433 0.0198661 -0.0128565 0.0086404 0.0271027 0.016188 0.0154298 0.0289743 0.0298718 0.0145406 0.0229805
internal_weight=0 66663.5 56783.6 19514.2 56232.7 9879.95 3120.67 44493.5 4789.45 11739.1 35118.9 32140.8 23075.9 5090.5 10377.9 4630.16 9374.6 9183.8 9064.92 12723.3 5345.74 4131.53 3596.78 7377.54 10352.6 8477.32 8396.41 7967.49 5327.17 1177.28
internal_count=863221 434260 335356 428961 322646 98904 50747 240359 41105 82287 185098 167906 121964 57799 69624 37430 55261 60796 45942 64521 27485 43629 26906 37036 57443 49370 41242 39112 33403 7223
cat_boundaries=0 1 7 8 9 11 17 19 20 25 30 36 38 40 46 48 49 50 52 58 59 60
cat_threshold=2 2885890 540016640 1660961281 2155880580 2172655643 1 1 1 1890417784 8777 0 0 134217728 16777216 2013265928 8 2387748771 497830 1 549544976 281059368 0 537953280 302121088 1073745920 150994944 0 335544320 1140850944 0 0 0 0 0 1 2222577187 235524 33554435 69632 100728840 0 134217728 1048576 1816133632 8 547375108 8 1 2 536872960 584 3221226128 0 0 0 201326592 8 4 2
is_linear=0
shrinkage=0.05


Tree=21
num_leaves=31
num_cat=21
split_feature=11 8 12 3 10 10 8 8 3 3 8 3 8 3 3 9 9 9 8 3 3 0 8 3 7 9 9 9 9 9
split_gain=22301.6 1479.14 680.09 367.757 338.181 192.502 181.236 171.234 120.343 81.0474 76.5514 70.8594 70.0252 68.3206 68.3147 61.3953 78.4299 102.752 55.9097 51.3562 50.5164 44.738 39.3559 36.2879 34.3357 32.2957 32.1192 136.018 54.6238 49.5752
threshold=0 1 2 3 4 5 6 7 8 9 10 11 12 13 14 244.50000000000003 117.50000000000001 67.500000000000014 15 16 17 18 19 20 34394.500000000007 249.50000000000003 65.500000000000014 103.50000000000001 102.50000000000001 244.50000000000003
decision_type=1 9 1 9 1 1 9 9 9 9 9 9 9 9 9 2 2 2 9 9 9 1 9 9 2 2 2 2 2 2
left_child=1 3 6 12 11 9 -2 8 -7 -6 19 -3 -1 -11 -9 16 17 -10 -15 -5 -16 -14 -13 -18 -25 -17 -20 28 -28 -29
right_child=2 4 -4 10 5 7 -8 14 15 13 -12 22 21 18 20 25 23 -19 26 -21 -22 -23 -24 24 -26 -27 27 29 -30 -31
leaf_value=-0.030183793735327192 0.0083887611586985766 -0.014689926976897159 -0.051466893921061643 0.015074537612720562 0.027009573873718051 0.0055730730287211344 -0.029878132754212045 0.0177390772945503 0.024168951475953746 -0.0007615468859064735 -0.01147333360198715 -0.0047045577831648028 -0.0069665567075728879 0.012188391966807318 -0.0057223239772235682 -0.0045498529200980473 0.038453474113070707 0.0085029806777569498 0.024960107307789817 0.0028590074359591692 0.0086340650005048807 -0.018720308230766192 0.0082186784865105333 0.018025992228846387 0.026138083222053583 0.014276703721216194 0.010386253365748721 0.02303631473922154 -0.026291638278195424 0.016452937241999293
leaf_weight=761.84607058763504 350.63481371849775 585.76238910108805 16498.181961156428 1134.3950008526444 3948.0013882815838 1813.0668586194515 2699.2982456944883 2042.860295817256 1962.3996766880155 432.36637464910746 729.11298429965973 839.29115954041481 1521.9093904346228 2462.5383926331997 657.89185729622841 254.06953695416451 480.31869764626026 2243.0699197724462 3214.4005597382784 3533.1513725072145 8320.4681714996696 1729.7200879976153 1937.0435726419091 1961.6292902752757 3893.4844529032707 2202.6692573130131 2452.1609265655279 11121.992297619581 105.89474987983704 3849.3267661035061
leaf_count=11106 3913 5413 398945 8076 19557 11568 46834 12322 10544 2779 8177 7336 15261 13892 4885 1494 2596 12721 15983 28798 52425 18864 15801 11010 20523 12498 13275 55454 583 20588
internal_value=0 0.0133326 -0.0474495 -0.00502961 0.0163737 0.0173431 -0.0254658 0.0142194 0.0177411 0.0202619 0.00349588 0.000965239 -0.0164735 0.019124 0.0094749 0.0194329 0.0211068 0.0158132 0.0194947 0.00585374 0.0075769 -0.0131785 0.0043091 0.0246207 0.0233804 0.0123297 0.0203558 0.0195231 0.00886791 0.0213436
internal_weight=0 66190.8 19548.1 9410.13 56780.7 53418.6 3049.93 25831.9 14810.7 27586.7 5396.66 3362.1 4013.48 23638.7 11021.2 12997.6 10540.9 4205.47 23206.3 4667.55 8978.36 3251.63 2776.33 6335.43 5855.11 2456.74 20743.8 17529.4 2558.06 14971.3
internal_count=863221 413529 449692 90282 323247 294697 50747 152586 82954 142111 45051 28550 45231 122554 69632 71386 57394 23265 119775 36874 57310 34125 23137 34129 31533 13992 105883 89900 13858 76042
cat_boundaries=0 1 7 8 10 11 12 18 24 26 28 33 35 41 43 45 50 52 54 55 60 62
cat_threshold=4 2918402 540049408 1660960771 2155880580 2172655643 1 2 2387772295 318742 8 2 0 0 134217728 16777216 2013265928 8 2264924184 150995968 138412032 0 1816133632 8 2387866146 243109 537139224 1537 34816 537952256 33554432 8192 25165827 3354710561 489632 0 0 0 0 0 1 3 65536 566701120 139787 599876880 163577864 4194304 553680896 303039488 539232272 584 2181038627 331776 2 3783275648 8388608 0 805306368 4194304 545785984 8
is_linear=0
shrinkage=0.05


Tree=22
num_leaves=31
num_cat=16
split_feature=11 8 4 1 1 8 1 8 1 1 8 1 5 8 5 8 8 5 13 5 8 1 7 8 9 9 9 9 8 7
split_gain=20840.9 1320.52 704.569 498.722 196.601 176.902 118.527 202.156 116.869 108.719 93.242 82.8487 82.0353 209.683 64.8307 119.454 110.967 61.0544 57.6704 54.1755 47.57 47.5357 47.2138 56.4669 45.4795 45.1016 53.9334 85.4889 44.1559 42.8663
threshold=0 1 2 54.500000000000007 22.500000000000004 3 38.500000000000007 4 70.500000000000014 23.500000000000004 5 50.500000000000007 6 7 8 9 10 11 14326.000000000002 12 13 20.500000000000004 34334.500000000007 14 244.50000000000003 244.50000000000003 117.50000000000001 65.500000000000014 15 53950.500000000007
decision_type=1 9 1 2 2 9 2 9 2 2 9 2 1 9 1 9 9 1 2 1 9 2 2 9 2 2 2 2 9 2
left_child=1 4 5 6 21 -2 9 12 14 20 17 18 22 -14 16 -16 -5 -11 -6 -9 -3 -1 23 -8 28 26 27 -18 -20 -19
right_child=2 3 -4 8 11 -7 7 19 -10 10 -12 -13 13 -15 15 -17 25 29 24 -21 -22 -23 -24 -25 -26 -27 -28 -29 -30 -31
leaf_value=-0.033289089059700634 0.0055822179668280868 -0.0045756009602448411 -0.051348072367920411 0.027274736767719965 -0.0081921104655806563 -0.029680268700560231 0.024823230782565375 0.082828132128833581 -0.0074841740413048143 0.0010234185489987515 0.012408120339454485 -0.019772037170865696 -0.025301719565381992 0.033769846360820879 -0.019654421266705704 0.019455129896422077 0.010951502794116013 0.026082018536946045 -0.0090230127511973669 0.011876184263130177 0.01602050137030548 -0.013844851765181233 0.021184229613743152 0.012753622392349635 -0.0059818045948718578 -0.0033686528118665434 0.010197668767481773 -0.0074185859802020264 0.0077744950167303421 0.010406870742074784
leaf_weight=367.132986176759 415.96417719498277 508.99479391425848 15738.729789659381 565.79519254714251 1302.6408965960145 2566.4188590794802 1256.9382081180811 26.951241552829742 1357.7048865780234 263.13477362692356 1852.2148246020079 509.68543005734682 158.61693459749222 1925.5935387983918 210.24708076566458 1994.8587527945638 1142.66843470186 10112.920166179538 431.94553700834513 15303.069887168705 609.77918288111687 2185.2401342205703 8083.1832928806543 4764.1418111398816 991.22722028195858 1474.4203290492296 3715.8520207032561 1420.8155824765563 3600.8095346838236 455.80422653257847
leaf_count=5607 4704 3920 398945 3637 12958 46043 6790 137 12703 1320 10393 4282 869 9175 1382 12092 7643 49751 4394 85968 4192 25477 40911 25049 8448 10212 25055 9803 29115 2246
internal_value=0 0.012586 -0.0471256 0.0154369 -0.0047953 -0.0248429 0.0178301 0.016138 0.00632189 0.021694 0.0230119 -0.000379398 0.0200433 0.0293149 0.00810291 0.0157253 0.00608258 0.0247908 0.00118291 0.0119931 0.00675245 -0.0166417 0.0186875 0.0153356 0.00361371 0.00449521 0.00634884 0.000769848 0.00597223 0.025406
internal_weight=0 66592.4 18721.1 57203.7 9388.68 2982.38 45321.3 31518.5 11882.4 13802.8 12684.1 6836.31 16188.5 2084.21 10524.7 2205.11 8319.55 10831.9 6326.62 15330 1118.77 2552.37 14104.3 6021.08 5023.98 7753.76 6279.34 2563.48 4032.76 10568.7
internal_count=863221 413529 449692 323248 90281 50747 240721 168899 82527 71822 63710 59197 82794 10044 69824 13474 56350 53317 54915 86105 8112 31084 72750 31839 41957 52713 42501 17446 33509 51997
cat_boundaries=0 1 7 8 14 20 26 27 33 34 40 46 47 48 53 59 65
cat_threshold=4 2689026 808452096 1660960771 2155880580 2172655643 1 1 262144 0 134217729 2164260992 4227862536 8 3351286408 151000080 205520896 16777216 675807232 8 2214608896 8388624 0 369098752 1812463872 8 2 0 0 0 16777216 675807232 8 2 2172649472 134217728 0 0 2080899072 8 8 0 134217728 0 1811939328 8 4 1 67108864 0 0 67108864 1342177280 2151710728 134217728 201326592 0 675282944 8 2 0 1090519041 0 8392720 1
is_linear=0
shrinkage=0.05


Tree=23
num_leaves=31
num_cat=11
split_feature=11 8 12 1 1 8 1 8 1 1 7 1 7 8 8 0 8 7 1 1 8 8 7 9 9 9 9 9 9 9
split_gain=19484.4 1181.38 702.673 393.819 230.91 163.82 139.452 172.646 99.3783 77.2875 71.2092 68.4366 67.0789 64.2424 63.4808 52.453 76.5372 51.6817 45.4503 43.611 42.8593 42.8584 42.0379 41.3889 83.8039 107.158 53.2397 41.4932 41.2424 49.5177
threshold=0 1 2 60.500000000000007 22.500000000000004 3 38.500000000000007 4 23.500000000000004 73.500000000000014 2978.5000000000005 55.500000000000007 34334.500000000007 5 6 7 8 47609.500000000007 20.500000000000004 50.500000000000007 9 10 50913.500000000007 244.50000000000003 117.50000000000001 65.500000000000014 245.50000000000003 80.500000000000014 69.500000000000014 104.50000000000001
decision_type=1 9 1 2 2 9 2 9 2 2 2 2 2 9 9 1 9 2 2 2 9 9 2 2 2 2 2 2 2 2
left_child=1 3 5 6 18 -2 8 23 20 22 14 13 21 -6 -10 -15 -17 28 -3 -14 -1 -9 -5 24 25 -8 -25 -27 -12 -30
right_child=2 4 -4 9 11 -7 7 12 10 -11 17 -13 19 15 -16 16 -18 -19 -20 -21 -22 -23 -24 26 -26 27 -28 -29 29 -31
leaf_value=-0.004365044528661508 0.0047797520833195058 -0.032573341040638783 -0.051168039307024432 0.0028669671219113957 -0.011119824508842966 -0.02896369263638883 0.015005056036519891 0.013357665272497357 0.026480515448429928 -0.013240436642754191 0.034707216907997773 -0.011493164525148633 0.022491096600228078 0.0081085600729933309 0.012017971342520251 -0.0035405370605213283 0.016625198323005762 0.015189950119413218 -0.013313295971673285 0.016060381460366771 0.015162227015283579 0.02683717629079704 0.014824813927742901 -0.034524606361474801 0.01543872641196161 -0.0095367982628868832 0.006564297577710868 0.0042052627946893295 0.013372740834716479 0.026220146000019373
leaf_weight=507.3941208794713 423.96157160401344 356.88245207816362 15012.74406401813 4463.1258333623409 765.26690914481878 2493.9072842597961 2361.0398935005069 7869.5466965213418 1089.5227809101343 664.89433452486992 1159.426087282598 967.35601272433996 7647.220354616642 3792.2851832583547 2720.4994290694594 2975.4721885994077 548.56833709776402 1286.6301937624812 2161.6279421001673 4023.6014767289162 615.32016949355602 654.23182522505522 879.87592609971762 81.061339683830738 7376.6475844830275 746.75590036064386 2872.1920665353537 2077.4569280892611 870.17141658812761 5431.588470466435
leaf_count=3920 4778 5608 398945 32520 8017 45969 13024 42079 5452 6476 5502 8078 37583 28622 14549 25725 3398 6271 25481 21617 4186 3478 6161 532 41039 4612 16918 12179 4408 26094
internal_value=0 0.0118871 -0.0467989 0.0149203 -0.00264963 -0.0240612 0.0163933 0.0147488 0.0206857 0.00283563 0.0219599 0.00107496 0.0178025 0.00257935 0.0162548 0.00402195 -0.000364316 0.0244447 -0.0160425 0.0202741 0.00643334 0.0144394 0.00483616 0.0107557 0.0120148 0.00714375 0.00543648 0.000571696 0.0260406 0.0244461
internal_weight=0 66965.7 17930.6 55398.2 11567.5 2917.87 49390.3 35709.8 13680.6 6007.9 12557.8 9048.95 20194.6 8081.59 3810.02 7316.33 3524.04 8747.82 2518.51 11670.8 1122.71 8523.78 5343 15515.2 12561.9 5185.25 2953.25 2824.21 7461.19 6301.76
internal_count=863221 413529 449692 308600 104929 50747 263443 193061 70382 45157 62276 73840 104757 65762 20001 57745 29123 42275 31089 59200 8106 45557 38681 88304 70854 29815 17450 16791 36004 30502
cat_boundaries=0 1 7 8 14 19 25 31 32 37 42 47
cat_threshold=4 2264928920 151000080 205520896 369229824 2118649088 8 2 262144 32 134217729 2164260992 4233105417 8 0 0 0 335675392 301991168 2097154 0 1090535426 132 8390672 1 0 0 0 268435456 134217728 8 2 24576 1089536 0 2685444096 16912546 67108864 0 0 67108864 1342177280 117444752 1024 0 0 1678245888
is_linear=0
shrinkage=0.05


Tree=24
num_leaves=31
num_cat=7
split_feature=11 8 12 1 1 8 9 9 9 9 9 1 9 9 5 8 8 1 9 9 9 9 9 9 9 9 9 9 9 9
split_gain=18224.1 1055.54 713.434 401.579 162.564 152.449 103.262 138.893 280.145 156.509 107.331 93.8487 92.5642 78.3962 72.207 115.798 108.343 67.1488 63.5074 165.995 255.767 100.256 96.164 71.3151 223.377 149.898 297.452 113.068 120.315 88.6988
threshold=0 1 2 54.500000000000007 22.500000000000004 3 244.50000000000003 117.50000000000001 69.500000000000014 80.500000000000014 245.50000000000003 73.500000000000014 84.500000000000014 33.500000000000007 4 5 6 50.500000000000007 123.50000000000001 127.50000000000001 128.50000000000003 125.50000000000001 122.50000000000001 197.50000000000003 215.50000000000003 222.50000000000003 223.50000000000003 146.50000000000003 141.50000000000003 147.50000000000003
decision_type=1 9 1 2 2 9 2 2 2 2 2 2 2 2 1 9 9 2 2 2 2 2 2 2 2 2 2 2 2 2
left_child=1 4 5 6 -1 -2 7 8 13 -10 -8 14 -11 -3 16 -16 -5 -6 22 21 -21 -20 -9 27 -25 -26 -27 28 -22 -29
right_child=2 3 -4 11 17 -7 10 18 9 12 -12 -13 -14 -15 15 -17 -18 -19 19 20 23 -23 -24 24 25 26 -28 29 -30 -31
leaf_value=-0.015440103648976605 0.0041036329752327577 0.013498582105551927 -0.051024375281413716 0.02468741689659272 0.00088055699465707708 -0.02826429828307303 -0.024362038406307074 0.023416956109098143 -0.006654635529016361 0.025216004102176965 0.011812266565263522 -0.011938262541472278 0.0078809696360805578 0.024241937182925749 -0.019230901013318789 0.017957139492749141 0.003099655917182522 -0.018999587029591744 0.022127502100631503 0.070324412210500523 0.018206642792452401 -0.020631614015796593 0.061249099868111327 0.032426210541773519 -0.00038035374826077885 0.078580036081088211 0.017154336793664578 -0.02021672084774671 0.038879830528399377 0.014411480330614937
leaf_weight=2485.1343330554664 432.17806880548596 2676.5538722500205 14319.788268294185 616.03909292072058 6253.470274142921 2424.1140542626381 210.12433831393719 723.72159977257252 1712.6710730195045 904.18708039075136 8496.2838648483157 719.01565553247929 5191.9332238361239 4644.905725248158 225.41063786298037 2154.2968483120203 8287.3353468775749 455.70920506864786 204.42714290320873 246.50779496133327 2315.8848570585251 416.14741512387991 218.73635321110487 3435.0579553097486 1107.7428189516068 208.49822188168764 3600.9238361120224 188.98871480673552 1011.0458601042628 8602.2504333555698
leaf_count=31085 4868 13890 398945 3929 54410 45879 1298 3710 9806 4648 46222 7103 28172 23480 1522 13082 57194 3883 1053 1206 11844 2214 1119 16909 5859 977 18405 975 5168 44366
internal_value=0 0.011232 -0.0464688 0.013721 -0.0045112 -0.0233696 0.0158436 0.016985 0.013288 0.00670017 0.0109392 0.00557634 0.0104521 0.0203144 0.00669246 0.0144293 0.00462456 -0.000469767 0.0194957 0.0189346 0.0196979 -0.00654608 0.0321975 0.0190883 0.0226431 0.0158087 0.0205163 0.0166382 0.0244892 0.0136671
internal_weight=0 67313 17176.1 58118.7 9194.31 2856.29 46116.6 37410.2 15130.3 7808.79 8706.41 12002.1 6096.12 7321.46 11283.1 2379.71 8903.37 6709.18 22279.9 21337.5 20716.9 620.575 942.458 20470.4 8352.22 4917.16 3809.42 12118.2 3326.93 8791.24
internal_count=863221 413529 449692 324151 89378 50747 241321 193801 79996 42626 47520 82830 32820 37370 75727 14604 61123 58293 113805 108976 105709 3267 4829 104503 42150 25241 19382 62353 17012 45341
cat_boundaries=0 1 7 8 14 15 21 27
cat_threshold=4 2916354 808452096 1660960769 2155880580 2172655643 1 2 263192 32 134217729 2164260992 4233105417 8 2 2172651520 0 0 0 2080899072 8 8 0 134217728 1048576 1816133632 8
is_linear=0
shrinkage=0.05


Tree=25
num_leaves=31
num_cat=13
split_feature=11 8 4 3 10 3 3 9 9 9 9 9 9 3 8 9 9 9 9 9 8 9 3 9 8 9 9 0 9 9
split_gain=17204 966.292 723.004 291.177 251.516 218.007 146.648 99.5821 110.347 188.444 157.372 219.134 100.788 89.0657 84.3695 84.1893 152.332 100.765 87.6715 81.5124 72.524 70.3215 65.3806 64.482 62.9757 60.8633 122.789 59.3099 58.9746 64.3787
threshold=0 1 2 3 4 5 6 244.50000000000003 197.50000000000003 215.50000000000003 222.50000000000003 223.50000000000003 239.50000000000003 7 8 60.500000000000007 103.50000000000001 102.50000000000001 189.50000000000003 33.500000000000007 9 245.50000000000003 10 19.500000000000004 11 207.50000000000003 204.50000000000003 12 99.500000000000014 93.500000000000014
decision_type=1 9 1 9 1 9 9 2 2 2 2 2 2 9 9 2 2 2 2 2 9 2 9 2 9 2 2 1 2 2
left_child=1 3 5 -1 22 -2 20 8 13 25 -11 -12 -13 -8 -5 19 17 28 -18 23 -6 -9 -3 -15 -7 26 -10 -16 29 -17
right_child=2 4 -4 14 6 24 7 21 9 10 11 12 -14 15 27 16 18 -19 -20 -21 -22 -23 -24 -25 -26 -27 -28 -29 -30 -31
leaf_value=-0.015643911062173822 0.0064331214320619461 -0.01887279052158929 -0.050918120506621103 -0.013318224453618003 -0.019740306303917394 -0.032989606322281269 0.025592790105377641 -0.019189980796708774 0.031556777166344932 -0.0016957503291384875 0.068967043697426123 0.011019664296130613 0.029043369836559731 0.0234039975529713 0.010279321859228533 0.0081418650720678637 0.016640191325574948 -0.025072332908340586 0.0038346270730599142 0.024915038744435292 0.0092109072315949541 0.01103590786790287 0.0024720169275080622 0.006562244413578458 -0.0078740902267118908 0.03658464749040153 -0.00089738221281596045 -0.00048058720147646505 0.023610028947997963 -0.0069577636434516232
leaf_weight=3455.5137768164277 517.36346188560128 398.05059643089771 13666.417402502149 715.61115976050496 212.90246750414371 1958.0647379346192 1842.5737031772733 197.0875458419323 1116.3910186737776 1077.9907676354051 215.26857455819845 2340.7021052837372 1160.0521843135357 898.09667664021254 2567.5216200500727 4301.648728556931 13464.494551308453 251.7085839509964 1483.902547955513 3146.3566380888224 10064.740282453597 8140.8124796748161 2960.0482311919332 1547.8427233025432 312.82412613928318 1865.8866088986397 394.41264373064041 2555.3395004048944 502.49190424382687 844.49354867637157
leaf_count=40587 8964 3797 399189 8816 1437 37942 9458 1235 5493 5718 1009 12083 5819 4637 19559 23464 69607 1438 7809 15771 59202 44342 24645 8103 3731 9089 2010 21270 2738 4729
internal_value=0 0.0108155 -0.0461841 -0.00416098 0.0131963 -0.0229804 0.0140073 0.0152476 0.0163785 0.0214966 0.0151239 0.0200031 0.0169922 0.0148999 0.00265034 0.0141397 0.0126839 0.00588111 0.015369 0.0195927 0.00859257 0.0103214 -0.000106601 0.0127462 -0.0295795 0.0305443 0.0230842 0.00490259 0.00726043 0.00566398
internal_weight=0 67721.9 16454.7 9293.99 58428 2788.25 55069.9 44792.2 36454.3 8170.7 4794.01 3716.02 3500.75 28283.6 5838.47 26441 20848.7 5900.34 14948.4 5592.3 10277.6 8337.9 3358.1 2445.94 2270.89 3376.69 1510.8 5122.86 5648.63 5146.14
internal_count=863691 413865 449826 90232 323633 50637 295191 234552 188975 41221 24629 18911 17902 147754 49645 138296 109785 32369 77416 28511 60639 45577 28442 12740 41673 16592 7503 40829 30931 28193
cat_boundaries=0 1 7 8 10 11 13 15 17 23 27 29 35 36
cat_threshold=4 12601346 271622144 1124089859 2161115268 2173700274 1 1 2403505031 367892 8 1619810424 1600 2383610787 499076 538970112 1 2 32768 0 8388608 2147483666 1 553656320 545259520 0 67108864 2276577793 458916 1711336834 814743552 0 889192448 58720256 9 2
is_linear=0
shrinkage=0.05


Tree=26
num_leaves=31
num_cat=25
split_feature=12 8 4 1 3 3 1 8 8 1 5 8 3 8 3 8 3 3 5 8 1 3 0 8 1 8 8 5 3 3
split_gain=16087.9 862.143 732.883 363.61 275.802 205.313 127.28 181.63 104.192 105.731 79.0097 249.719 78.2281 76.7671 71.905 66.228 64.7759 60.1173 57.8661 63.4638 56.7358 54.4654 54.4126 53.5861 50.9743 49.8053 46.1044 44.7171 44.6491 42.8569
threshold=0 1 2 60.500000000000007 3 4 38.500000000000007 5 6 27.500000000000004 7 8 9 10 11 12 13 14 15 16 51.500000000000007 17 18 19 76.500000000000014 20 21 22 23 24
decision_type=1 9 1 2 9 9 2 9 9 2 1 9 9 9 9 9 9 9 1 9 2 9 1 9 2 9 9 1 9 9
left_child=1 4 5 6 25 -2 8 10 28 -10 17 -12 -9 -6 -5 -7 -14 26 19 -16 22 -11 29 -20 -21 -1 -8 -18 -3 -15
right_child=2 3 -4 14 13 15 7 12 9 21 11 -13 16 20 18 -17 27 -19 23 24 -22 -23 -24 -25 -26 -27 -28 -29 -30 -31
leaf_value=-0.028458468828849462 0.0060832757757653998 0.028713684681772957 -0.050782027932124586 -0.011922188812634077 -0.012805455553569349 -0.0061731516846809725 0.0037127463044711894 0.015588674569459586 0.0015751076452062277 0.0060932325706475367 -0.028452167586282474 0.027742771223424435 -0.015015055405162429 0.020845976402659481 0.025611309355689345 -0.032362272641757055 0.072522276144693545 0.01568035315798345 -0.0071257674303464094 0.00029577328183440156 -0.015786427035156012 0.018759694267263257 0.00064587634148005862 0.017454363695217984 -0.02637381717960581 -0.012542142620069084 0.020740421903792453 0.0076050778120921765 0.019513239044254976 0.006505915478651406
leaf_weight=621.79848471656442 520.25952741131186 2116.4133529439569 13033.862549200654 880.22863680869341 715.66675797849894 298.29468151926994 1994.0698250234127 3461.7209671959281 1426.143269367516 1053.7170938700438 208.19058522582054 2569.9237328395247 312.25655557960272 777.833671040833 228.27721972763538 1913.8130232468247 26.574641272425652 14166.17269603163 277.55427496135235 3856.7683900669217 321.00007056444883 5194.1444527059793 2437.0956246703863 1062.9899202436209 187.89581636339426 2657.4969446733594 491.39753960818052 14915.503355152905 4436.8679220527411 1639.6860257834196
leaf_count=9872 8964 10138 399189 7295 8944 3503 11159 18501 9500 5511 1153 12120 2134 5426 1557 38170 133 71326 2003 29144 2594 24988 20353 6878 1989 29563 2694 84263 21746 12881
internal_value=0 0.0102224 -0.0458172 0.0124442 -0.00403745 -0.0223017 0.01383 0.0123247 0.0178661 0.0138412 0.0157149 0.023529 0.00879212 0.00243506 0.00128642 -0.0288744 0.00724055 0.0144206 0.00337284 0.000535414 0.0045631 0.0166632 0.00591807 0.0124422 -0.000940843 -0.0156374 0.00714888 0.00771537 0.0225238 0.011233
internal_weight=0 68037.4 15766.2 58866.8 9170.58 2732.37 52373.1 38145.8 14227.3 7674 19429.8 2778.11 18716.1 5891.28 6493.71 2212.11 15254.3 16651.6 5613.49 4272.94 5175.62 6247.86 4854.62 1340.54 4044.66 3279.3 2485.47 14942.1 6553.28 2417.52
internal_count=863691 413865 449826 324232 89633 50637 275366 203483 71883 39999 98452 13273 105031 50198 48866 41673 86530 85179 41571 32690 41254 30499 38660 8881 31133 39435 13853 84396 31884 18307
cat_boundaries=0 1 7 8 10 12 18 24 25 31 33 39 41 46 48 50 51 57 59 60 66 72 77 78 80 82
cat_threshold=8 12584962 271622144 1124089859 2161115268 2173700274 1 1 2403505031 367636 1619810424 1600 2250277400 151000112 205520896 0 675283968 8 16384 8388624 0 268435456 1207959808 8 2 0 0 0 0 675282944 8 1631857744 8821 2 0 0 8388608 2147483794 1 2272641217 458916 2165117464 1056 134217729 2156920960 2086276097 547 4096 2253500443 513412 2 264 0 0 0 1811939328 8 3363243233 203846 2 553649152 32 0 603979776 2084569088 8 0 0 0 0 0 1 100696600 1024 0 0 4194304 1 1636097144 17312 1614546944 586
is_linear=0
shrinkage=0.05


Tree=27
num_leaves=31
num_cat=25
split_feature=12 8 4 1 3 3 1 3 8 3 8 8 8 1 8 1 8 3 5 8 0 3 3 5 1 8 3 5 8 8
split_gain=15057.4 773.746 742.27 334.69 257.112 191.305 108.288 86.3716 78.1616 67.5492 64.3687 63.4559 63.2457 63.2891 52.6324 52.5932 50.23 60.2853 57.3051 48.694 48.1968 45.4229 42.8588 42.1938 50.4138 45.5 41.5764 40.8409 147.621 39.8584
threshold=0 1 2 50.500000000000007 3 4 62.500000000000007 5 6 7 8 9 10 36.500000000000007 11 27.500000000000004 12 13 14 15 16 17 18 19 76.500000000000014 20 21 22 23 24
decision_type=1 9 1 2 9 9 2 9 9 9 9 9 9 2 9 2 9 9 1 9 1 9 9 1 2 9 9 1 9 9
left_child=1 4 5 7 19 -2 8 14 27 -8 -6 -7 -9 15 -3 -14 17 -15 -18 -1 -12 -21 -10 24 25 -11 -13 29 -29 -5
right_child=2 3 -4 6 10 11 9 12 22 23 20 26 13 16 -16 -17 18 -19 -20 21 -22 -23 -24 -25 -26 -27 -28 28 -30 -31
